{"learner":{"attributes":{"best_iteration":"349","best_score":"3.6993510465564365"},"feature_names":[],"feature_types":[],"gradient_booster":{"model":{"gbtree_model_param":{"num_parallel_tree":"1","num_trees":"350"},"iteration_indptr":[0,1,2,3,4,5,6,7,8,9,10,11,12,13,14,15,16,17,18,19,20,21,22,23,24,25,26,27,28,29,30,31,32,33,34,35,36,37,38,39,40,41,42,43,44,45,46,47,48,49,50,51,52,53,54,55,56,57,58,59,60,61,62,63,64,65,66,67,68,69,70,71,72,73,74,75,76,77,78,79,80,81,82,83,84,85,86,87,88,89,90,91,92,93,94,95,96,97,98,99,100,101,102,103,104,105,106,107,108,109,110,111,112,113,114,115,116,117,118,119,120,121,122,123,124,125,126,127,128,129,130,131,132,133,134,135,136,137,138,139,140,141,142,143,144,145,146,147,148,149,150,151,152,153,154,155,156,157,158,159,160,161,162,163,164,165,166,167,168,169,170,171,172,173,174,175,176,177,178,179,180,181,182,183,184,185,186,187,188,189,190,191,192,193,194,195,196,197,198,199,200,201,202,203,204,205,206,207,208,209,210,211,212,213,214,215,216,217,218,219,220,221,222,223,224,225,226,227,228,229,230,231,232,233,234,235,236,237,238,239,240,241,242,243,244,245,246,247,248,249,250,251,252,253,254,255,256,257,258,259,260,261,262,263,264,265,266,267,268,269,270,271,272,273,274,275,276,277,278,279,280,281,282,283,284,285,286,287,288,289,290,291,292,293,294,295,296,297,298,299,300,301,302,303,304,305,306,307,308,309,310,311,312,313,314,315,316,317,318,319,320,321,322,323,324,325,326,327,328,329,330,331,332,333,334,335,336,337,338,339,340,341,342,343,344,345,346,347,348,349,350],"tree_info":[0,0,0,0,0,0,0,0,0,0,0,0,0,0,0,0,0,0,0,0,0,0,0,0,0,0,0,0,0,0,0,0,0,0,0,0,0,0,0,0,0,0,0,0,0,0,0,0,0,0,0,0,0,0,0,0,0,0,0,0,0,0,0,0,0,0,0,0,0,0,0,0,0,0,0,0,0,0,0,0,0,0,0,0,0,0,0,0,0,0,0,0,0,0,0,0,0,0,0,0,0,0,0,0,0,0,0,0,0,0,0,0,0,0,0,0,0,0,0,0,0,0,0,0,0,0,0,0,0,0,0,0,0,0,0,0,0,0,0,0,0,0,0,0,0,0,0,0,0,0,0,0,0,0,0,0,0,0,0,0,0,0,0,0,0,0,0,0,0,0,0,0,0,0,0,0,0,0,0,0,0,0,0,0,0,0,0,0,0,0,0,0,0,0,0,0,0,0,0,0,0,0,0,0,0,0,0,0,0,0,0,0,0,0,0,0,0,0,0,0,0,0,0,0,0,0,0,0,0,0,0,0,0,0,0,0,0,0,0,0,0,0,0,0,0,0,0,0,0,0,0,0,0,0,0,0,0,0,0,0,0,0,0,0,0,0,0,0,0,0,0,0,0,0,0,0,0,0,0,0,0,0,0,0,0,0,0,0,0,0,0,0,0,0,0,0,0,0,0,0,0,0,0,0,0,0,0,0,0,0,0,0,0,0,0,0,0,0,0,0,0,0,0,0,0,0,0,0,0,0,0,0,0,0,0,0,0,0,0,0,0,0,0,0,0,0,0,0,0,0],"trees":[{"base_weights":[-2.1365989E-7,5.0686107E0,-6.271743E0,-4.2052582E-1,6.7330465E0,-8.399055E0,-3.6416926E0,-3.5842273E-1,1.1613665E-1,3.3546078E-1,8.4222555E-1,-6.98695E-1,-9.246227E-1,-8.889254E-2,-4.989957E-1],"categories":[],"categories_nodes":[],"categories_segments":[],"categories_sizes":[],"default_left":[0,0,0,0,0,0,0,0,0,0,0,0,0,0,0],"id":0,"left_children":[1,3,5,7,9,11,13,-1,-1,-1,-1,-1,-1,-1,-1],"loss_changes":[1.78345E7,2.834764E6,1.402917E6,3.6130378E5,1.35868E6,1.65772E5,4.1615775E5,0E0,0E0,0E0,0E0,0E0,0E0,0E0,0E0],"parents":[2147483647,0,0,1,1,2,2,3,3,4,4,5,5,6,6],"right_children":[2,4,6,8,10,12,14,-1,-1,-1,-1,-1,-1,-1,-1],"split_conditions":[2.4718809E-1,-5.133355E-1,-4.5133358E-1,-5.0561684E-1,-5.0561684E-1,-3.660276E-1,-1.1825956E0,-3.5842273E-1,1.1613665E-1,3.3546078E-1,8.4222555E-1,-6.98695E-1,-9.246227E-1,-8.889254E-2,-4.989957E-1],"split_indices":[7,5,11,19,19,21,6,0,0,0,0,0,0,0,0],"split_type":[0,0,0,0,0,0,0,0,0,0,0,0,0,0,0],"sum_hessian":[5.61025E5,3.10273E5,2.50752E5,7.2192E4,2.38081E5,1.38624E5,1.12128E5,2.4064E4,4.8128E4,7.9361E4,1.5872E5,5.1984E4,8.664E4,3.6864E4,7.5264E4],"tree_param":{"num_deleted":"0","num_feature":"22","num_nodes":"15","size_leaf_vector":"1"}},{"base_weights":[-2.5631114E-6,5.002538E0,-5.1909413E0,7.6653714E0,2.3963447E0,-7.5591607E0,-2.7894225E0,1.0095541E0,5.608969E-1,5.145251E-1,7.469802E-2,-6.008821E-1,-8.197468E-1,2.9766768E-2,-3.995308E-1],"categories":[],"categories_nodes":[],"categories_segments":[],"categories_sizes":[],"default_left":[0,0,0,0,0,0,0,0,0,0,0,0,0,0,0],"id":1,"left_children":[1,3,5,7,9,11,13,-1,-1,-1,-1,-1,-1,-1,-1],"loss_changes":[1.4568684E7,1.982685E6,1.5658635E6,7.061425E5,6.546349E5,1.37133E5,5.0890962E5,0E0,0E0,0E0,0E0,0E0,0E0,0E0,0E0],"parents":[2147483647,0,0,1,1,2,2,3,3,4,4,5,5,6,6],"right_children":[2,4,6,8,10,12,14,-1,-1,-1,-1,-1,-1,-1,-1],"split_conditions":[5.3776603E-2,6.782952E-3,-4.5133358E-1,-2.5207653E-6,-3.660276E-1,-7.071087E-1,-1.2673554E0,1.0095541E0,5.608969E-1,5.145251E-1,7.469802E-2,-6.008821E-1,-8.197468E-1,2.9766768E-2,-3.995308E-1],"split_indices":[7,12,11,21,21,21,6,0,0,0,0,0,0,0,0],"split_type":[0,0,0,0,0,0,0,0,0,0,0,0,0,0,0],"sum_hessian":[5.61025E5,2.85697E5,2.75328E5,1.41312E5,1.44385E5,1.38624E5,1.36704E5,6.4768E4,7.6544E4,5.4144E4,9.0241E4,4.0432E4,9.8192E4,3.84E4,9.8304E4],"tree_param":{"num_deleted":"0","num_feature":"22","num_nodes":"15","size_leaf_vector":"1"}},{"base_weights":[-1.7529761E-6,4.4546123E0,-4.7247977E0,5.8136764E0,6.7243916E-3,-6.8032546E0,-2.568663E0,2.893308E-1,7.273851E-1,-2.5366095E-1,1.5327486E-1,-7.934425E-1,-5.995188E-1,1.25806285E-2,-3.6551324E-1],"categories":[],"categories_nodes":[],"categories_segments":[],"categories_sizes":[],"default_left":[0,0,0,0,0,0,0,0,0,0,0,0,0,0,0],"id":2,"left_children":[1,3,5,7,9,11,13,-1,-1,-1,-1,-1,-1,-1,-1],"loss_changes":[1.1808015E7,1.7456055E6,1.220084E6,9.431705E5,2.62314E5,1.266635E5,3.9120544E5,0E0,0E0,0E0,0E0,0E0,0E0,0E0,0E0],"parents":[2147483647,0,0,1,1,2,2,3,3,4,4,5,5,6,6],"right_children":[2,4,6,8,10,12,14,-1,-1,-1,-1,-1,-1,-1,-1],"split_conditions":[7.80853E-2,1.0806563E0,-4.5133358E-1,-5.0561684E-1,-3.6115402E-1,-2.1669124E-1,-1.2507019E0,2.893308E-1,7.273851E-1,-2.5366095E-1,1.5327486E-1,-7.934425E-1,-5.995188E-1,1.25806285E-2,-3.6551324E-1],"split_indices":[7,6,11,19,19,19,6,0,0,0,0,0,0,0,0],"split_type":[0,0,0,0,0,0,0,0,0,0,0,0,0,0,0],"sum_hessian":[5.61025E5,2.88769E5,2.72256E5,2.21185E5,6.7584E4,1.38624E5,1.33632E5,7.3729E4,1.47456E5,2.5344E4,4.224E4,5.776E4,8.0864E4,3.84E4,9.5232E4],"tree_param":{"num_deleted":"0","num_feature":"22","num_nodes":"15","size_leaf_vector":"1"}},{"base_weights":[-3.147075E-6,4.4400077E0,-3.8658423E0,1.323091E0,5.851921E0,-1.4064536E0,-5.7228E0,3.343065E-1,-3.8615465E-2,7.9421973E-1,4.0831804E-1,9.181797E-2,-2.8012276E-1,-3.403019E-1,-6.1124486E-1],"categories":[],"categories_nodes":[],"categories_segments":[],"categories_sizes":[],"default_left":[0,0,0,0,0,0,0,0,0,0,0,0,0,0,0],"id":3,"left_children":[1,3,5,7,9,11,13,-1,-1,-1,-1,-1,-1,-1,-1],"loss_changes":[9.629674E6,1.1491415E6,1.3696525E6,2.810766E5,6.643985E5,4.1834528E5,1.544385E5,0E0,0E0,0E0,0E0,0E0,0E0,0E0,0E0],"parents":[2147483647,0,0,1,1,2,2,3,3,4,4,5,5,6,6],"right_children":[2,4,6,8,10,12,14,-1,-1,-1,-1,-1,-1,-1,-1],"split_conditions":[-1.4067145E-1,-3.0468324E-1,8.2507443E-1,-2.5207653E-6,-2.5207653E-6,-3.660276E-1,-8.895232E-1,3.343065E-1,-3.8615465E-2,7.9421973E-1,4.0831804E-1,9.181797E-2,-2.8012276E-1,-3.403019E-1,-6.1124486E-1],"split_indices":[7,5,7,21,21,21,6,0,0,0,0,0,0,0,0],"split_type":[0,0,0,0,0,0,0,0,0,0,0,0,0,0,0],"sum_hessian":[5.61025E5,2.61121E5,2.99904E5,8.1408E4,1.79713E5,1.29024E5,1.7088E5,3.7312E4,4.4096E4,8.2368E4,9.7345E4,4.8384E4,8.064E4,2.4576E4,1.46304E5],"tree_param":{"num_deleted":"0","num_feature":"22","num_nodes":"15","size_leaf_vector":"1"}},{"base_weights":[-2.2153708E-6,3.295253E0,-4.262634E0,5.732297E0,1.3285055E0,-1.2024198E0,-5.062521E0,3.3449063E-1,7.1646774E-1,-9.6933015E-2,2.6313874E-1,7.8702234E-2,-2.3960721E-1,-3.7385592E-1,-5.8568615E-1],"categories":[],"categories_nodes":[],"categories_segments":[],"categories_sizes":[],"default_left":[0,0,0,0,0,0,0,0,0,0,0,0,0,0,0],"id":4,"left_children":[1,3,5,7,9,11,13,-1,-1,-1,-1,-1,-1,-1,-1],"loss_changes":[7.8804425E6,1.5165995E6,5.987545E5,4.832175E5,5.2423638E5,1.2037317E5,2.0392E5,0E0,0E0,0E0,0E0,0E0,0E0,0E0,0E0],"parents":[2147483647,0,0,1,1,2,2,3,3,4,4,5,5,6,6],"right_children":[2,4,6,8,10,12,14,-1,-1,-1,-1,-1,-1,-1,-1],"split_conditions":[2.949484E-1,6.782952E-3,-1.0067928E0,-3.6115402E-1,-4.415963E-1,-3.660276E-1,-3.660276E-1,3.3449063E-1,7.1646774E-1,-9.6933015E-2,2.6313874E-1,7.8702234E-2,-2.3960721E-1,-3.7385592E-1,-5.8568615E-1],"split_indices":[7,12,6,19,8,21,21,0,0,0,0,0,0,0,0],"split_type":[0,0,0,0,0,0,0,0,0,0,0,0,0,0,0],"sum_hessian":[5.61025E5,3.16417E5,2.44608E5,1.41312E5,1.75105E5,5.0688E4,1.9392E5,5.2992E4,8.832E4,6.336E4,1.11745E5,1.9008E4,3.168E4,7.272E4,1.212E5],"tree_param":{"num_deleted":"0","num_feature":"22","num_nodes":"15","size_leaf_vector":"1"}},{"base_weights":[-1.8175433E-6,3.7904217E0,-3.0211658E0,5.3692064E0,1.9245706E0,-4.523691E-1,-4.370619E0,2.6323456E-1,6.5855485E-1,3.10755E-1,-3.769137E-2,-2.3983549E-1,9.376367E-2,-1.9492857E-1,-4.8494297E-1],"categories":[],"categories_nodes":[],"categories_segments":[],"categories_sizes":[],"default_left":[0,0,0,0,0,0,0,0,0,0,0,0,0,0,0],"id":5,"left_children":[1,3,5,7,9,11,13,-1,-1,-1,-1,-1,-1,-1,-1],"loss_changes":[6.424595E6,7.3299925E5,1.0822058E6,4.4867625E5,3.105147E5,2.9083916E5,2.3728025E5,0E0,0E0,0E0,0E0,0E0,0E0,0E0,0E0],"parents":[2147483647,0,0,1,1,2,2,3,3,4,4,5,5,6,6],"right_children":[2,4,6,8,10,12,14,-1,-1,-1,-1,-1,-1,-1,-1],"split_conditions":[-2.3713244E-1,3.6602256E-1,5.9435725E-1,-2.1669124E-1,6.122318E-1,-2.1669124E-1,-9.807972E-1,2.6323456E-1,6.5855485E-1,3.10755E-1,-3.769137E-2,-2.3983549E-1,9.376367E-2,-1.9492857E-1,-4.8494297E-1],"split_indices":[7,21,7,19,6,19,6,0,0,0,0,0,0,0,0],"split_type":[0,0,0,0,0,0,0,0,0,0,0,0,0,0,0],"sum_hessian":[5.61025E5,2.48833E5,3.12192E5,1.34784E5,1.14049E5,1.0752E5,2.04672E5,4.1472E4,9.3312E4,7.5329E4,3.872E4,4.48E4,6.272E4,3.3792E4,1.7088E5],"tree_param":{"num_deleted":"0","num_feature":"22","num_nodes":"15","size_leaf_vector":"1"}},{"base_weights":[-9.603501E-7,2.5684075E0,-3.6339872E0,4.734063E0,9.352823E-1,-1.1586233E0,-4.1963325E0,6.198785E-1,3.0029604E-1,-1.07527494E-1,2.1416326E-1,5.5791058E-2,-2.1885262E-1,-5.321114E-1,-3.3928764E-1],"categories":[],"categories_nodes":[],"categories_segments":[],"categories_sizes":[],"default_left":[0,0,0,0,0,0,0,0,0,0,0,0,0,0,0],"id":6,"left_children":[1,3,5,7,9,11,13,-1,-1,-1,-1,-1,-1,-1,-1],"loss_changes":[5.2363795E6,1.162559E6,3.233885E5,3.58292E5,4.5451456E5,7.603525E4,1.7106625E5,0E0,0E0,0E0,0E0,0E0,0E0,0E0,0E0],"parents":[2147483647,0,0,1,1,2,2,3,3,4,4,5,5,6,6],"right_children":[2,4,6,8,10,12,14,-1,-1,-1,-1,-1,-1,-1,-1],"split_conditions":[3.8936067E-1,6.782952E-3,-1.0321172E0,3.6602256E-1,-3.6115402E-1,-3.660276E-1,-2.1669124E-1,6.198785E-1,3.0029604E-1,-1.07527494E-1,2.1416326E-1,5.5791058E-2,-2.1885262E-1,-5.321114E-1,-3.3928764E-1],"split_indices":[7,12,6,21,19,21,19,0,0,0,0,0,0,0,0],"split_type":[0,0,0,0,0,0,0,0,0,0,0,0,0,0,0],"sum_hessian":[5.61025E5,3.28705E5,2.3232E5,1.41312E5,1.87393E5,4.3008E4,1.89312E5,7.6544E4,6.4768E4,7.0273E4,1.1712E5,1.6128E4,2.688E4,7.888E4,1.10432E5],"tree_param":{"num_deleted":"0","num_feature":"22","num_nodes":"15","size_leaf_vector":"1"}},{"base_weights":[-7.129069E-7,3.255629E0,-2.3733482E0,1.3350726E0,4.407959E0,6.501496E-1,-3.262339E0,2.4761291E-1,-2.695924E-2,5.347386E-1,1.8244655E-1,2.57401E-1,-5.0419744E-2,-2.0035787E-1,-4.0175778E-1],"categories":[],"categories_nodes":[],"categories_segments":[],"categories_sizes":[],"default_left":[0,0,0,0,0,0,0,0,0,0,0,0,0,0,0],"id":7,"left_children":[1,3,5,7,9,11,13,-1,-1,-1,-1,-1,-1,-1,-1],"loss_changes":[4.3349105E6,5.234975E5,8.72162E5,1.6242252E5,3.5880075E5,1.6373884E5,2.38374E5,0E0,0E0,0E0,0E0,0E0,0E0,0E0,0E0],"parents":[2147483647,0,0,1,1,2,2,3,3,4,4,5,5,6,6],"right_children":[2,4,6,8,10,12,14,-1,-1,-1,-1,-1,-1,-1,-1],"split_conditions":[-3.3247417E-1,-3.6115402E-1,-1.1825956E0,3.2579824E-1,1.2279367E0,-3.660276E-1,-3.660276E-1,2.4761291E-1,-2.695924E-2,5.347386E-1,1.8244655E-1,2.57401E-1,-5.0419744E-2,-2.0035787E-1,-4.0175778E-1],"split_indices":[7,19,6,6,19,21,21,0,0,0,0,0,0,0,0],"split_type":[0,0,0,0,0,0,0,0,0,0,0,0,0,0,0],"sum_hessian":[5.61025E5,2.36545E5,3.2448E5,8.8705E4,1.4784E5,7.3728E4,2.50752E5,5.1841E4,3.6864E4,1.08416E5,3.9424E4,2.7648E4,4.608E4,9.4032E4,1.5672E5],"tree_param":{"num_deleted":"0","num_feature":"22","num_nodes":"15","size_leaf_vector":"1"}},{"base_weights":[2.5910904E-7,2.0926168E0,-3.0285153E0,-7.981066E-1,3.0091836E0,-1.2571453E0,-3.5510786E0,-2.3561113E-1,3.1478055E-2,4.7566196E-1,1.9607052E-1,3.7841894E-2,-1.9306049E-1,-4.5255357E-1,-2.8550008E-1],"categories":[],"categories_nodes":[],"categories_segments":[],"categories_sizes":[],"default_left":[0,0,0,0,0,0,0,0,0,0,0,0,0,0,0],"id":8,"left_children":[1,3,5,7,9,11,13,-1,-1,-1,-1,-1,-1,-1,-1],"loss_changes":[3.555521E6,8.7906175E5,2.122005E5,1.384912E5,4.6152E5,5.752586E4,1.2006275E5,0E0,0E0,0E0,0E0,0E0,0E0,0E0,0E0],"parents":[2147483647,0,0,1,1,2,2,3,3,4,4,5,5,6,6],"right_children":[2,4,6,8,10,12,14,-1,-1,-1,-1,-1,-1,-1,-1],"split_conditions":[4.1269198E-1,-5.3230387E-1,-9.083272E-1,-2.1669124E-1,-3.660276E-1,-7.071087E-1,-2.1669124E-1,-2.3561113E-1,3.1478055E-2,4.7566196E-1,1.9607052E-1,3.7841894E-2,-1.9306049E-1,-4.5255357E-1,-2.8550008E-1],"split_indices":[7,5,6,19,21,21,19,0,0,0,0,0,0,0,0],"split_type":[0,0,0,0,0,0,0,0,0,0,0,0,0,0,0],"sum_hessian":[5.61025E5,3.31777E5,2.29248E5,7.9872E4,2.51905E5,5.2224E4,1.77024E5,3.328E4,4.6592E4,9.4464E4,1.57441E5,1.5232E4,3.6992E4,7.376E4,1.03264E5],"tree_param":{"num_deleted":"0","num_feature":"22","num_nodes":"15","size_leaf_vector":"1"}},{"base_weights":[-5.604192E-7,2.7446792E0,-1.9126801E0,3.838544E0,1.1920615E0,7.831357E-1,-2.5662117E0,2.1644452E-1,5.034308E-1,2.0863333E-1,-2.9840812E-2,2.1729732E-1,-3.92909E-2,-3.4417126E-1,-1.614217E-1],"categories":[],"categories_nodes":[],"categories_segments":[],"categories_sizes":[],"default_left":[0,0,0,0,0,0,0,0,0,0,0,0,0,0,0],"id":9,"left_children":[1,3,5,7,9,11,13,-1,-1,-1,-1,-1,-1,-1,-1],"loss_changes":[2.9452195E6,3.912995E5,5.824974E5,2.70576E5,1.26935234E5,1.0544806E5,2.2179225E5,0E0,0E0,0E0,0E0,0E0,0E0,0E0,0E0],"parents":[2147483647,0,0,1,1,2,2,3,3,4,4,5,5,6,6],"right_children":[2,4,6,8,10,12,14,-1,-1,-1,-1,-1,-1,-1,-1],"split_conditions":[-3.795838E-1,3.2579824E-1,-1.2727194E0,-2.1669124E-1,7.071036E-1,-2.5207653E-6,-4.5133358E-1,2.1644452E-1,5.034308E-1,2.0863333E-1,-2.9840812E-2,2.1729732E-1,-3.92909E-2,-3.4417126E-1,-1.614217E-1],"split_indices":[7,6,6,19,21,21,11,0,0,0,0,0,0,0,0],"split_type":[0,0,0,0,0,0,0,0,0,0,0,0,0,0,0],"sum_hessian":[5.61025E5,2.30401E5,3.30624E5,1.35169E5,9.5232E4,6.4512E4,2.66112E5,5.6321E4,7.8848E4,5.952E4,3.5712E4,2.9568E4,3.4944E4,1.38624E5,1.27488E5],"tree_param":{"num_deleted":"0","num_feature":"22","num_nodes":"15","size_leaf_vector":"1"}},{"base_weights":[3.527981E-7,2.5307975E0,-1.685284E0,1.1007618E0,3.5522463E0,-1.3669461E-1,-2.6470644E0,-1.5593213E-2,2.0025943E-1,4.4477382E-1,1.313458E-1,1.2084015E-1,-1.2748538E-1,-3.5183808E-1,-2.0246716E-1],"categories":[],"categories_nodes":[],"categories_segments":[],"categories_sizes":[],"default_left":[0,0,0,0,0,0,0,0,0,0,0,0,0,0,0],"id":10,"left_children":[1,3,5,7,9,11,13,-1,-1,-1,-1,-1,-1,-1,-1],"loss_changes":[2.3928435E6,3.2757175E5,5.0158425E5,1.0590068E5,2.6225825E5,1.9753022E5,1.1265325E5,0E0,0E0,0E0,0E0,0E0,0E0,0E0,0E0],"parents":[2147483647,0,0,1,1,2,2,3,3,4,4,5,5,6,6],"right_children":[2,4,6,8,10,12,14,-1,-1,-1,-1,-1,-1,-1,-1],"split_conditions":[-4.2624474E-1,-2.1669124E-1,5.721968E-1,-1.1499934E-1,1.2279367E0,-2.5207653E-6,-2.1669124E-1,-1.5593213E-2,2.0025943E-1,4.4477382E-1,1.313458E-1,1.2084015E-1,-1.2748538E-1,-3.5183808E-1,-2.0246716E-1],"split_indices":[7,19,7,5,19,21,19,0,0,0,0,0,0,0,0],"split_type":[0,0,0,0,0,0,0,0,0,0,0,0,0,0,0],"sum_hessian":[5.61025E5,2.24257E5,3.36768E5,9.3441E4,1.30816E5,1.29024E5,2.07744E5,3.904E4,5.4401E4,9.344E4,3.7376E4,5.9136E4,6.9888E4,8.656E4,1.21184E5],"tree_param":{"num_deleted":"0","num_feature":"22","num_nodes":"15","size_leaf_vector":"1"}},{"base_weights":[6.0293456E-7,2.130135E0,-1.6239462E0,6.702965E-1,3.048161E0,2.6202664E-1,-2.2556393E0,-4.5546424E-2,1.474405E-1,1.6471043E-1,4.0489015E-1,-1.0179911E-1,1.17632724E-1,-1.2282069E-1,-2.8720865E-1],"categories":[],"categories_nodes":[],"categories_segments":[],"categories_sizes":[],"default_left":[0,0,0,0,0,0,0,0,0,0,0,0,0,0,0],"id":11,"left_children":[1,3,5,7,9,11,13,-1,-1,-1,-1,-1,-1,-1,-1],"loss_changes":[1.9407185E6,3.2524388E5,3.792532E5,8.481835E4,2.0889688E5,9.347825E4,1.5103012E5,0E0,0E0,0E0,0E0,0E0,0E0,0E0,0E0],"parents":[2147483647,0,0,1,1,2,2,3,3,4,4,5,5,6,6],"right_children":[2,4,6,8,10,12,14,-1,-1,-1,-1,-1,-1,-1,-1],"split_conditions":[-2.849716E-1,-1.719045E-1,-1.0962404E0,-2.1669124E-1,-2.1669124E-1,-2.1669124E-1,-3.660276E-1,-4.5546424E-2,1.474405E-1,1.6471043E-1,4.0489015E-1,-1.0179911E-1,1.17632724E-1,-1.2282069E-1,-2.8720865E-1],"split_indices":[7,5,6,19,19,19,21,0,0,0,0,0,0,0,0],"split_type":[0,0,0,0,0,0,0,0,0,0,0,0,0,0,0],"sum_hessian":[5.61025E5,2.42689E5,3.18336E5,9.3696E4,1.48993E5,7.9872E4,2.38464E5,3.904E4,5.4656E4,6.2081E4,8.6912E4,3.328E4,4.6592E4,8.9424E4,1.4904E5],"tree_param":{"num_deleted":"0","num_feature":"22","num_nodes":"15","size_leaf_vector":"1"}},{"base_weights":[1.0387016E-6,1.3952992E0,-2.0657067E0,2.7342908E0,4.1761866E-1,-3.3799145E0,-1.6860934E0,3.5664886E-1,1.3472538E-1,1.5556705E-1,-5.4534473E-2,-6.381065E-1,-3.0112192E-1,-2.5696167E-1,-1.0549867E-1],"categories":[],"categories_nodes":[],"categories_segments":[],"categories_sizes":[],"default_left":[0,0,0,0,0,0,0,0,0,0,0,0,0,0,0],"id":12,"left_children":[1,3,5,7,9,11,13,-1,-1,-1,-1,-1,-1,-1,-1],"loss_changes":[1.617036E6,4.38353E5,1.1283181E5,1.6311138E5,2.1209956E5,5.606875E4,9.784947E4,0E0,0E0,0E0,0E0,0E0,0E0,0E0,0E0],"parents":[2147483647,0,0,1,1,2,2,3,3,4,4,5,5,6,6],"right_children":[2,4,6,8,10,12,14,-1,-1,-1,-1,-1,-1,-1,-1],"split_conditions":[4.3590075E-1,6.782952E-3,-1.4143339E0,7.071036E-1,-2.5207653E-6,-1.3799168E0,-2.1669124E-1,3.5664886E-1,1.3472538E-1,1.5556705E-1,-5.4534473E-2,-6.381065E-1,-3.0112192E-1,-2.5696167E-1,-1.0549867E-1],"split_indices":[7,12,5,21,21,0,19,0,0,0,0,0,0,0,0],"split_type":[0,0,0,0,0,0,0,0,0,0,0,0,0,0,0],"sum_hessian":[5.61025E5,3.34849E5,2.26176E5,1.41312E5,1.93537E5,5.0688E4,1.75488E5,8.832E4,5.2992E4,8.8704E4,1.04833E5,5.544E3,4.5144E4,7.312E4,1.02368E5],"tree_param":{"num_deleted":"0","num_feature":"22","num_nodes":"15","size_leaf_vector":"1"}},{"base_weights":[-3.3066127E-7,1.9213529E0,-1.2221005E0,7.972771E-1,2.7242606E0,5.117849E-1,-1.8026538E0,-1.1749583E-2,1.4665999E-1,3.355173E-1,4.1087653E-2,-6.154567E-2,1.3169537E-1,-2.647163E-1,-1.1994194E-1],"categories":[],"categories_nodes":[],"categories_segments":[],"categories_sizes":[],"default_left":[0,0,0,0,0,0,0,0,0,0,0,0,0,0,0],"id":13,"left_children":[1,3,5,7,9,11,13,-1,-1,-1,-1,-1,-1,-1,-1],"loss_changes":[1.3173398E6,1.96852E5,3.451816E5,5.564524E4,1.8570069E5,7.807154E4,1.30869625E5,0E0,0E0,0E0,0E0,0E0,0E0,0E0,0E0],"parents":[2147483647,0,0,1,1,2,2,3,3,4,4,5,5,6,6],"right_children":[2,4,6,8,10,12,14,-1,-1,-1,-1,-1,-1,-1,-1],"split_conditions":[-4.7240162E-1,-2.1669124E-1,-1.1551682E0,-1.05515145E-1,1.3723996E0,-2.1669124E-1,-2.1669124E-1,-1.1749583E-2,1.4665999E-1,3.355173E-1,4.1087653E-2,-6.154567E-2,1.3169537E-1,-2.647163E-1,-1.1994194E-1],"split_indices":[7,19,6,5,19,19,19,0,0,0,0,0,0,0,0],"split_type":[0,0,0,0,0,0,0,0,0,0,0,0,0,0,0],"sum_hessian":[5.61025E5,2.18113E5,3.42912E5,9.0881E4,1.27232E5,8.6016E4,2.56896E5,3.84E4,5.2481E4,9.9968E4,2.7264E4,3.584E4,5.0176E4,1.0704E5,1.49856E5],"tree_param":{"num_deleted":"0","num_feature":"22","num_nodes":"15","size_leaf_vector":"1"}},{"base_weights":[-1.3563773E-7,1.1297485E0,-1.7508171E0,-5.584122E-1,1.6992462E0,-2.1462672E0,-6.573427E-1,-1.6745381E-1,2.3883812E-2,2.5292313E-1,7.183499E-2,-1.1848771E-1,-2.74538E-1,1.2997694E-2,-1.0795569E-1],"categories":[],"categories_nodes":[],"categories_segments":[],"categories_sizes":[],"default_left":[0,0,0,0,0,0,0,0,0,0,0,0,0,0,0],"id":14,"left_children":[1,3,5,7,9,11,13,-1,-1,-1,-1,-1,-1,-1,-1],"loss_changes":[1.1097019E6,3.278338E5,9.514406E4,7.654107E4,2.0758319E5,9.307131E4,1.9426955E4,0E0,0E0,0E0,0E0,0E0,0E0,0E0,0E0],"parents":[2147483647,0,0,1,1,2,2,3,3,4,4,5,5,6,6],"right_children":[2,4,6,8,10,12,14,-1,-1,-1,-1,-1,-1,-1,-1],"split_conditions":[4.8192304E-1,-5.228197E-1,7.977637E-1,-2.1669124E-1,3.6602256E-1,-3.9645588E-1,9.922189E-1,-1.6745381E-1,2.3883812E-2,2.5292313E-1,7.183499E-2,-1.1848771E-1,-2.74538E-1,1.2997694E-2,-1.0795569E-1],"split_indices":[7,5,0,19,21,6,7,0,0,0,0,0,0,0,0],"split_type":[0,0,0,0,0,0,0,0,0,0,0,0,0,0,0],"sum_hessian":[5.61025E5,3.40993E5,2.20032E5,8.6016E4,2.54977E5,1.61592E5,5.844E4,3.584E4,5.0176E4,1.38112E5,1.16865E5,6.204E4,9.9552E4,2.04E4,3.804E4],"tree_param":{"num_deleted":"0","num_feature":"22","num_nodes":"15","size_leaf_vector":"1"}},{"base_weights":[-6.8935833E-7,1.1772275E0,-1.3632939E0,1.9774384E0,1.3223286E-1,-7.818928E-1,-2.162961E0,8.613861E-2,2.7746135E-1,8.094328E-2,-6.6809446E-2,3.540249E-2,-1.4634399E-1,-2.9346442E-1,-1.3327186E-1],"categories":[],"categories_nodes":[],"categories_segments":[],"categories_sizes":[],"default_left":[0,0,0,0,0,0,0,0,0,0,0,0,0,0,0],"id":15,"left_children":[1,3,5,7,9,11,13,-1,-1,-1,-1,-1,-1,-1,-1],"loss_changes":[9.0039625E5,2.5174931E5,1.20865E5,1.5168781E5,7.0762195E4,1.16537266E5,7.011322E4,0E0,0E0,0E0,0E0,0E0,0E0,0E0,0E0],"parents":[2147483647,0,0,1,1,2,2,3,3,4,4,5,5,6,6],"right_children":[2,4,6,8,10,12,14,-1,-1,-1,-1,-1,-1,-1,-1],"split_conditions":[1.7501394E-1,3.2579824E-1,1.1638396E0,-2.1669124E-1,3.6602256E-1,-3.660276E-1,6.850712E-2,8.613861E-2,2.7746135E-1,8.094328E-2,-6.6809446E-2,3.540249E-2,-1.4634399E-1,-2.9346442E-1,-1.3327186E-1],"split_indices":[7,6,7,19,21,21,0,0,0,0,0,0,0,0,0],"split_type":[0,0,0,0,0,0,0,0,0,0,0,0,0,0,0],"sum_hessian":[5.61025E5,3.01057E5,2.59968E5,1.70497E5,1.3056E5,1.50528E5,1.0944E5,7.1041E4,9.9456E4,7.072E4,5.984E4,5.6448E4,9.408E4,5.6719E4,5.2721E4],"tree_param":{"num_deleted":"0","num_feature":"22","num_nodes":"15","size_leaf_vector":"1"}},{"base_weights":[-9.0843275E-7,1.48084E0,-9.2039627E-1,6.6566956E-1,2.250703E0,2.2593337E-1,-1.3853651E0,1.1621179E-1,-1.6175281E-2,3.4206027E-1,1.5487345E-1,1.4779408E-1,-2.8961275E-2,-6.979569E-2,-1.9670089E-1],"categories":[],"categories_nodes":[],"categories_segments":[],"categories_sizes":[],"default_left":[0,0,0,0,0,0,0,0,0,0,0,0,0,0,0],"id":16,"left_children":[1,3,5,7,9,11,13,-1,-1,-1,-1,-1,-1,-1,-1],"loss_changes":[7.646569E5,1.3495231E5,1.8441294E5,4.2904957E4,9.0818125E4,6.444455E4,9.8414E4,0E0,0E0,0E0,0E0,0E0,0E0,0E0,0E0],"parents":[2147483647,0,0,1,1,2,2,3,3,4,4,5,5,6,6],"right_children":[2,4,6,8,10,12,14,-1,-1,-1,-1,-1,-1,-1,-1],"split_conditions":[-4.9527392E-1,-2.0157393E-2,-1.0321172E0,7.071036E-1,-3.660276E-1,-7.071087E-1,-2.5207653E-6,1.1621179E-1,-1.6175281E-2,3.4206027E-1,1.5487345E-1,1.4779408E-1,-2.8961275E-2,-6.979569E-2,-1.9670089E-1],"split_indices":[7,5,6,21,21,21,21,0,0,0,0,0,0,0,0],"split_type":[0,0,0,0,0,0,0,0,0,0,0,0,0,0,0],"sum_hessian":[5.61025E5,2.15041E5,3.45984E5,1.04448E5,1.10593E5,9.984E4,2.46144E5,6.528E4,3.9168E4,4.1472E4,6.9121E4,2.912E4,7.072E4,1.12816E5,1.33328E5],"tree_param":{"num_deleted":"0","num_feature":"22","num_nodes":"15","size_leaf_vector":"1"}},{"base_weights":[2.4379082E-8,8.328637E-1,-1.3517227E0,-9.843455E-2,1.4980786E0,-3.0481203E0,-1.1433183E0,7.248067E-2,-8.256215E-2,2.037121E-1,-4.7841176E-2,-2.2460043E-1,-5.411474E-1,-3.7548702E-2,-1.4594792E-1],"categories":[],"categories_nodes":[],"categories_segments":[],"categories_sizes":[],"default_left":[0,0,0,0,0,0,0,0,0,0,0,0,0,0,0],"id":17,"left_children":[1,3,5,7,9,11,13,-1,-1,-1,-1,-1,-1,-1,-1],"loss_changes":[6.316047E5,2.1505683E5,7.5614125E4,8.659056E4,2.1574369E5,4.4348734E4,4.6242234E4,0E0,0E0,0E0,0E0,0E0,0E0,0E0,0E0],"parents":[2147483647,0,0,1,1,2,2,3,3,4,4,5,5,6,6],"right_children":[2,4,6,8,10,12,14,-1,-1,-1,-1,-1,-1,-1,-1],"split_conditions":[5.27373E-1,-2.1669124E-1,-1.3664808E0,-8.563531E-1,1.3723996E0,1.3526607E0,-7.071087E-1,7.248067E-2,-8.256215E-2,2.037121E-1,-4.7841176E-2,-2.2460043E-1,-5.411474E-1,-3.7548702E-2,-1.4594792E-1],"split_indices":[7,19,0,7,19,7,21,0,0,0,0,0,0,0,0],"split_type":[0,0,0,0,0,0,0,0,0,0,0,0,0,0,0],"sum_hessian":[5.61025E5,3.47137E5,2.13888E5,1.44641E5,2.02496E5,2.34E4,1.90488E5,6.784E4,7.6801E4,1.59104E5,4.3392E4,1.7472E4,5.928E3,5.5559E4,1.34929E5],"tree_param":{"num_deleted":"0","num_feature":"22","num_nodes":"15","size_leaf_vector":"1"}},{"base_weights":[-1.4405156E-6,1.4155815E0,-6.755882E-1,6.9089943E-1,2.1220553E0,3.2343647E-1,-1.1105804E0,-1.8161557E-4,1.1856868E-1,1.1375379E-1,2.825248E-1,1.23014584E-1,-2.205911E-2,-1.7417556E-1,-6.5973274E-2],"categories":[],"categories_nodes":[],"categories_segments":[],"categories_sizes":[],"default_left":[0,0,0,0,0,0,0,0,0,0,0,0,0,0,0],"id":18,"left_children":[1,3,5,7,9,11,13,-1,-1,-1,-1,-1,-1,-1,-1],"loss_changes":[5.365376E5,9.2792375E4,1.6503973E5,3.0666602E4,6.353453E4,5.6826523E4,7.528791E4,0E0,0E0,0E0,0E0,0E0,0E0,0E0,0E0],"parents":[2147483647,0,0,1,1,2,2,3,3,4,4,5,5,6,6],"right_children":[2,4,6,8,10,12,14,-1,-1,-1,-1,-1,-1,-1,-1],"split_conditions":[-7.357445E-1,1.3833208E-1,-1.0404066E0,-2.1669124E-1,-2.1669124E-1,-3.660276E-1,-2.1669124E-1,-1.8161557E-4,1.1856868E-1,1.1375379E-1,2.825248E-1,1.23014584E-1,-2.205911E-2,-1.7417556E-1,-6.5973274E-2],"split_indices":[7,8,6,19,19,21,19,0,0,0,0,0,0,0,0],"split_type":[0,0,0,0,0,0,0,0,0,0,0,0,0,0,0],"sum_hessian":[5.61025E5,1.81248E5,3.79777E5,8.9472E4,9.1776E4,1.15201E5,2.64576E5,3.728E4,5.2192E4,3.824E4,5.3536E4,4.32E4,7.2001E4,1.1024E5,1.54336E5],"tree_param":{"num_deleted":"0","num_feature":"22","num_nodes":"15","size_leaf_vector":"1"}},{"base_weights":[-5.205061E-7,6.9447625E-1,-1.1271238E0,-7.866316E-2,1.2467202E0,-1.4594244E0,-2.0826901E-1,-1.2640816E-1,2.689968E-2,1.8384932E-1,-2.3271864E-2,-2.8317827E-1,-1.1878969E-1,3.1119367E-2,-5.1791508E-2],"categories":[],"categories_nodes":[],"categories_segments":[],"categories_sizes":[],"default_left":[0,0,0,0,0,0,0,0,0,0,0,0,0,0,0],"id":19,"left_children":[1,3,5,7,9,11,13,-1,-1,-1,-1,-1,-1,-1,-1],"loss_changes":[4.3915E5,1.4821467E5,6.5307688E4,5.961057E4,1.7728494E5,5.853022E4,9.137863E3,0E0,0E0,0E0,0E0,0E0,0E0,0E0,0E0],"parents":[2147483647,0,0,1,1,2,2,3,3,4,4,5,5,6,6],"right_children":[2,4,6,8,10,12,14,-1,-1,-1,-1,-1,-1,-1,-1],"split_conditions":[5.27373E-1,-2.1669124E-1,7.977637E-1,-4.415963E-1,1.2279367E0,-1.5091759E0,1.0428289E0,-1.2640816E-1,2.689968E-2,1.8384932E-1,-2.3271864E-2,-2.8317827E-1,-1.1878969E-1,3.1119367E-2,-5.1791508E-2],"split_indices":[7,19,0,8,19,5,7,0,0,0,0,0,0,0,0],"split_type":[0,0,0,0,0,0,0,0,0,0,0,0,0,0,0],"sum_hessian":[5.61025E5,3.47137E5,2.13888E5,1.44641E5,2.02496E5,1.5708E5,5.6808E4,3.28E4,1.11841E5,1.4464E5,5.7856E4,2.5944E4,1.31136E5,2.1216E4,3.5592E4],"tree_param":{"num_deleted":"0","num_feature":"22","num_nodes":"15","size_leaf_vector":"1"}},{"base_weights":[-1.0688457E-6,1.2240226E0,-5.553793E-1,5.555649E-1,1.8751043E0,-1.29207E0,-1.4241873E-1,1.3434795E-1,2.3111286E-2,8.694508E-2,2.3779078E-1,-5.1031196E-1,-1.16944745E-1,6.651888E-2,-6.2698126E-2],"categories":[],"categories_nodes":[],"categories_segments":[],"categories_sizes":[],"default_left":[0,0,0,0,0,0,0,0,0,0,0,0,0,0,0],"id":20,"left_children":[1,3,5,7,9,11,13,-1,-1,-1,-1,-1,-1,-1,-1],"loss_changes":[3.8138397E5,7.620825E4,1.1740664E5,2.2087283E4,4.485128E4,6.477642E4,9.677711E4,0E0,0E0,0E0,0E0,0E0,0E0,0E0,0E0],"parents":[2147483647,0,0,1,1,2,2,3,3,4,4,5,5,6,6],"right_children":[2,4,6,8,10,12,14,-1,-1,-1,-1,-1,-1,-1,-1],"split_conditions":[-7.768829E-1,1.3833208E-1,-4.5133358E-1,-7.071074E-1,-5.0561684E-1,-1.6508332E0,-3.660276E-1,1.3434795E-1,2.3111286E-2,8.694508E-2,2.3779078E-1,-5.1031196E-1,-1.16944745E-1,6.651888E-2,-6.2698126E-2],"split_indices":[7,8,11,20,19,0,21,0,0,0,0,0,0,0,0],"split_type":[0,0,0,0,0,0,0,0,0,0,0,0,0,0,0],"sum_hessian":[5.61025E5,1.75104E5,3.85921E5,8.64E4,8.8704E4,1.38624E5,2.47297E5,2.52E4,6.12E4,2.9568E4,5.9136E4,4.32E3,1.34304E5,9.2736E4,1.54561E5],"tree_param":{"num_deleted":"0","num_feature":"22","num_nodes":"15","size_leaf_vector":"1"}},{"base_weights":[-1.2103096E-6,1.1171964E0,-4.9408305E-1,1.7196128E0,5.147671E-1,2.5435102E-1,-8.4603417E-1,2.2236858E-1,8.794486E-2,-1.7606003E-2,8.601777E-2,-4.349096E-2,7.466888E-2,-3.418068E-2,-1.2726828E-1],"categories":[],"categories_nodes":[],"categories_segments":[],"categories_sizes":[],"default_left":[0,0,0,0,0,0,0,0,0,0,0,0,0,0,0],"id":21,"left_children":[1,3,5,7,9,11,13,-1,-1,-1,-1,-1,-1,-1,-1],"loss_changes":[3.0967966E5,6.243217E4,1.0246599E5,3.6426625E4,2.0525443E4,4.222145E4,5.6917453E4,0E0,0E0,0E0,0E0,0E0,0E0,0E0,0E0],"parents":[2147483647,0,0,1,1,2,2,3,3,4,4,5,5,6,6],"right_children":[2,4,6,8,10,12,14,-1,-1,-1,-1,-1,-1,-1,-1],"split_conditions":[-7.971102E-1,-1.4448723E-5,-9.982013E-1,7.071036E-1,-5.0561684E-1,-2.1669124E-1,-2.5207653E-6,2.2236858E-1,8.794486E-2,-1.7606003E-2,8.601777E-2,-4.349096E-2,7.466888E-2,-3.418068E-2,-1.2726828E-1],"split_indices":[7,6,6,21,19,19,21,0,0,0,0,0,0,0,0],"split_type":[0,0,0,0,0,0,0,0,0,0,0,0,0,0,0],"sum_hessian":[5.61025E5,1.72032E5,3.88993E5,8.6016E4,8.6016E4,1.24417E5,2.64576E5,5.376E4,3.2256E4,2.8672E4,5.7344E4,5.1841E4,7.2576E4,1.21264E5,1.43312E5],"tree_param":{"num_deleted":"0","num_feature":"22","num_nodes":"15","size_leaf_vector":"1"}},{"base_weights":[-5.871834E-7,6.887223E-1,-6.692075E-1,2.06532E-2,1.1995921E0,-1.206946E0,-2.8510368E-1,1.5314874E-2,-1.4366673E-1,1.7402555E-1,5.606198E-2,-1.5057054E-1,-3.8085327E-2,1.7816892E-2,-1.4432645E-1],"categories":[],"categories_nodes":[],"categories_segments":[],"categories_sizes":[],"default_left":[0,0,0,0,0,0,0,0,0,0,0,0,0,0,0],"id":22,"left_children":[1,3,5,7,9,11,13,-1,-1,-1,-1,-1,-1,-1,-1],"loss_changes":[2.5857631E5,9.4362266E4,5.8771695E4,2.3133953E4,5.4125016E4,2.9260625E4,8.905853E4,0E0,0E0,0E0,0E0,0E0,0E0,0E0,0E0],"parents":[2147483647,0,0,1,1,2,2,3,3,4,4,5,5,6,6],"right_children":[2,4,6,8,10,12,14,-1,-1,-1,-1,-1,-1,-1,-1],"split_conditions":[-1.9217996E-2,-1.1499934E-1,-2.1669124E-1,1.5168623E0,3.6602256E-1,7.977637E-1,1.2279367E0,1.5314874E-2,-1.4366673E-1,1.7402555E-1,5.606198E-2,-1.5057054E-1,-3.8085327E-2,1.7816892E-2,-1.4432645E-1],"split_indices":[7,5,19,19,21,0,19,0,0,0,0,0,0,0,0],"split_type":[0,0,0,0,0,0,0,0,0,0,0,0,0,0,0],"sum_hessian":[5.61025E5,2.76481E5,2.84544E5,1.19808E5,1.56673E5,1.1856E5,1.65984E5,1.09824E5,9.984E3,8.4864E4,7.1809E4,8.707E4,3.149E4,1.1856E5,4.7424E4],"tree_param":{"num_deleted":"0","num_feature":"22","num_nodes":"15","size_leaf_vector":"1"}},{"base_weights":[-1.0200984E-6,1.0036061E0,-3.888636E-1,1.5393386E0,4.678608E-1,-1.1436034E-1,-1.1578634E0,7.9536945E-2,2.0707162E-1,3.361484E-2,2.1759515E-1,-7.351698E-2,3.2908022E-2,-3.0136684E-1,-9.263367E-2],"categories":[],"categories_nodes":[],"categories_segments":[],"categories_sizes":[],"default_left":[0,0,0,0,0,0,0,0,0,0,0,0,0,0,0],"id":23,"left_children":[1,3,5,7,9,11,13,-1,-1,-1,-1,-1,-1,-1,-1],"loss_changes":[2.1894934E5,4.496697E4,8.535614E4,3.0967203E4,1.7623266E4,8.203343E4,4.570061E4,0E0,0E0,0E0,0E0,0E0,0E0,0E0,0E0],"parents":[2147483647,0,0,1,1,2,2,3,3,4,4,5,5,6,6],"right_children":[2,4,6,8,10,12,14,-1,-1,-1,-1,-1,-1,-1,-1],"split_conditions":[-8.945908E-1,-1.4448723E-5,1.1774577E0,-2.1669124E-1,1.5019639E0,-2.1669124E-1,-1.3394115E0,7.9536945E-2,2.0707162E-1,3.361484E-2,2.1759515E-1,-7.351698E-2,3.2908022E-2,-3.0136684E-1,-9.263367E-2],"split_indices":[7,6,7,19,0,19,0,0,0,0,0,0,0,0,0],"split_type":[0,0,0,0,0,0,0,0,0,0,0,0,0,0,0],"sum_hessian":[5.61025E5,1.56672E5,4.04353E5,7.8336E4,7.8336E4,2.97985E5,1.06368E5,3.264E4,4.5696E4,7.2729E4,5.607E3,1.24161E5,1.73824E5,1.1797E4,9.4571E4],"tree_param":{"num_deleted":"0","num_feature":"22","num_nodes":"15","size_leaf_vector":"1"}},{"base_weights":[-8.061105E-7,4.4447762E-1,-7.3837006E-1,8.2149214E-1,-1.8388428E-1,-2.0839164E0,-5.73069E-1,1.1086378E-1,-1.0449386E-1,-9.766283E-2,5.180369E-3,-1.4671719E-1,-3.8661847E-1,-8.315428E-2,3.5173919E-3],"categories":[],"categories_nodes":[],"categories_segments":[],"categories_sizes":[],"default_left":[0,0,0,0,0,0,0,0,0,0,0,0,0,0,0],"id":24,"left_children":[1,3,5,7,9,11,13,-1,-1,-1,-1,-1,-1,-1,-1],"loss_changes":[1.84123E5,8.296545E4,4.6888773E4,1.1730822E5,2.4537592E4,2.5347469E4,2.9517598E4,0E0,0E0,0E0,0E0,0E0,0E0,0E0,0E0],"parents":[2147483647,0,0,1,1,2,2,3,3,4,4,5,5,6,6],"right_children":[2,4,6,8,10,12,14,-1,-1,-1,-1,-1,-1,-1,-1],"split_conditions":[5.498665E-1,7.071074E-1,-1.3664808E0,1.5168623E0,-4.415963E-1,1.3526607E0,7.977637E-1,1.1086378E-1,-1.0449386E-1,-9.766283E-2,5.180369E-3,-1.4671719E-1,-3.8661847E-1,-8.315428E-2,3.5173919E-3],"split_indices":[7,20,0,19,8,7,0,0,0,0,0,0,0,0,0],"split_type":[0,0,0,0,0,0,0,0,0,0,0,0,0,0,0],"sum_hessian":[5.61025E5,3.50209E5,2.10816E5,2.18881E5,1.31328E5,2.3064E4,1.87752E5,1.89697E5,2.9184E4,3.0096E4,1.01232E5,1.7136E4,5.928E3,1.3176E5,5.5992E4],"tree_param":{"num_deleted":"0","num_feature":"22","num_nodes":"15","size_leaf_vector":"1"}},{"base_weights":[-2.0875914E-6,8.4996283E-1,-3.293337E-1,1.3321228E0,3.67792E-1,1.8133196E-1,-6.357314E-1,9.035596E-2,2.096024E-1,1.9549591E-2,1.4762859E-1,-6.4286076E-2,5.934306E-2,2.269928E-2,-8.5141145E-2],"categories":[],"categories_nodes":[],"categories_segments":[],"categories_sizes":[],"default_left":[0,0,0,0,0,0,0,0,0,0,0,0,0,0,0],"id":25,"left_children":[1,3,5,7,9,11,13,-1,-1,-1,-1,-1,-1,-1,-1],"loss_changes":[1.5704284E5,3.64234E4,6.3268082E4,2.5644062E4,1.4961229E4,5.1502332E4,4.702478E4,0E0,0E0,0E0,0E0,0E0,0E0,0E0,0E0],"parents":[2147483647,0,0,1,1,2,2,3,3,4,4,5,5,6,6],"right_children":[2,4,6,8,10,12,14,-1,-1,-1,-1,-1,-1,-1,-1],"split_conditions":[-8.945908E-1,-1.4448723E-5,-3.660276E-1,4.8663828E-1,1.2852479E0,-7.222844E-2,-1.224746E0,9.035596E-2,2.096024E-1,1.9549591E-2,1.4762859E-1,-6.4286076E-2,5.934306E-2,2.269928E-2,-8.5141145E-2],"split_indices":[7,6,21,0,0,19,20,0,0,0,0,0,0,0,0],"split_type":[0,0,0,0,0,0,0,0,0,0,0,0,0,0,0],"sum_hessian":[5.61025E5,1.56672E5,4.04353E5,7.8336E4,7.8336E4,1.51632E5,2.52721E5,5.0184E4,2.8152E4,6.7799E4,1.0537E4,5.0544E4,1.01088E5,5.0544E4,2.02177E5],"tree_param":{"num_deleted":"0","num_feature":"22","num_nodes":"15","size_leaf_vector":"1"}},{"base_weights":[-1.2655555E-6,3.8940778E-1,-6.1754274E-1,9.57511E-1,4.854455E-2,-8.7077045E-1,8.2659766E-2,3.9795347E-2,1.4051454E-1,1.1312093E-1,-2.2212505E-2,-2.6280561E-2,-1.2701057E-1,-5.849953E-4,1.4903009E-1],"categories":[],"categories_nodes":[],"categories_segments":[],"categories_sizes":[],"default_left":[0,0,0,0,0,0,0,0,0,0,0,0,0,0,0],"id":26,"left_children":[1,3,5,7,9,11,13,-1,-1,-1,-1,-1,-1,-1,-1],"loss_changes":[1.3491366E5,6.66268E4,3.846958E4,3.231725E4,6.301711E4,3.8683773E4,7.179503E3,0E0,0E0,0E0,0E0,0E0,0E0,0E0,0E0],"parents":[2147483647,0,0,1,1,2,2,3,3,4,4,5,5,6,6],"right_children":[2,4,6,8,10,12,14,-1,-1,-1,-1,-1,-1,-1,-1],"split_conditions":[5.0472295E-1,-3.660276E-1,7.977637E-1,7.223436E-2,-1.224746E0,-3.3766404E-1,1.3468363E0,3.9795347E-2,1.4051454E-1,1.1312093E-1,-2.2212505E-2,-2.6280561E-2,-1.2701057E-1,-5.849953E-4,1.4903009E-1],"split_indices":[7,21,0,19,20,6,4,0,0,0,0,0,0,0,0],"split_type":[0,0,0,0,0,0,0,0,0,0,0,0,0,0,0],"sum_hessian":[5.61025E5,3.44065E5,2.1696E5,1.29024E5,2.15041E5,1.59336E5,5.7624E4,5.7344E4,7.168E4,4.3008E4,1.72033E5,6.3168E4,9.6168E4,5.4216E4,3.408E3],"tree_param":{"num_deleted":"0","num_feature":"22","num_nodes":"15","size_leaf_vector":"1"}},{"base_weights":[-6.052173E-7,5.6078666E-1,-3.6498982E-1,3.3965877E-1,1.376482E0,-1.5051E0,-2.3910113E-1,-1.9170757E-2,7.234197E-2,1.8322437E-1,8.375417E-2,-7.271189E-1,-1.3188808E-1,3.244752E-2,-4.711624E-2],"categories":[],"categories_nodes":[],"categories_segments":[],"categories_sizes":[],"default_left":[0,0,0,0,0,0,0,0,0,0,0,0,0,0,0],"id":27,"left_children":[1,3,5,7,9,11,13,-1,-1,-1,-1,-1,-1,-1,-1],"loss_changes":[1.1483175E5,3.9895516E4,4.877599E4,3.5484664E4,1.1585492E4,3.6275883E4,4.002654E4,0E0,0E0,0E0,0E0,0E0,0E0,0E0,0E0],"parents":[2147483647,0,0,1,1,2,2,3,3,4,4,5,5,6,6],"right_children":[2,4,6,8,10,12,14,-1,-1,-1,-1,-1,-1,-1,-1],"split_conditions":[-4.493896E-1,1.0145907E0,-1.5186601E0,-1.1499934E-1,3.6602572E-1,-1.6508332E0,-7.071087E-1,-1.9170757E-2,7.234197E-2,1.8322437E-1,8.375417E-2,-7.271189E-1,-1.3188808E-1,3.244752E-2,-4.711624E-2],"split_indices":[7,0,5,5,20,0,21,0,0,0,0,0,0,0,0],"split_type":[0,0,0,0,0,0,0,0,0,0,0,0,0,0,0],"sum_hessian":[5.61025E5,2.21185E5,3.3984E5,1.74013E5,4.7172E4,3.3792E4,3.06048E5,7.2973E4,1.0104E5,2.5557E4,2.1615E4,1.056E3,3.2736E4,8.9264E4,2.16784E5],"tree_param":{"num_deleted":"0","num_feature":"22","num_nodes":"15","size_leaf_vector":"1"}},{"base_weights":[-1.5069095E-6,-4.1699398E-1,4.1528052E-1,-3.1577718E0,-3.5103974E-1,9.0785486E-1,1.1973411E-1,-2.290974E-1,-6.178768E-1,-5.7908993E-2,2.5907764E-2,3.7154984E-2,1.3368852E-1,8.638571E-2,-1.5085856E-2],"categories":[],"categories_nodes":[],"categories_segments":[],"categories_sizes":[],"default_left":[0,0,0,0,0,0,0,0,0,0,0,0,0,0,0],"id":28,"left_children":[1,3,5,7,9,11,13,-1,-1,-1,-1,-1,-1,-1,-1],"loss_changes":[9.715275E4,5.0601973E4,4.092058E4,1.7210953E4,3.803475E4,2.4253172E4,3.5374445E4,0E0,0E0,0E0,0E0,0E0,0E0,0E0,0E0],"parents":[2147483647,0,0,1,1,2,2,3,3,4,4,5,5,6,6],"right_children":[2,4,6,8,10,12,14,-1,-1,-1,-1,-1,-1,-1,-1],"split_conditions":[4.458023E-1,-1.6508332E0,-3.660276E-1,-1.6325016E0,8.1134784E-1,7.223436E-2,-1.0000008E0,-2.290974E-1,-6.178768E-1,-5.7908993E-2,2.5907764E-2,3.7154984E-2,1.3368852E-1,8.638571E-2,-1.5085856E-2],"split_indices":[11,0,21,2,0,19,20,0,0,0,0,0,0,0,0],"split_type":[0,0,0,0,0,0,0,0,0,0,0,0,0,0,0],"sum_hessian":[5.61025E5,2.79936E5,2.81089E5,6.577E3,2.73359E5,1.05408E5,1.75681E5,5.112E3,1.465E3,1.98983E5,7.4376E4,4.6848E4,5.856E4,4.6848E4,1.28833E5],"tree_param":{"num_deleted":"0","num_feature":"22","num_nodes":"15","size_leaf_vector":"1"}},{"base_weights":[-2.449937E-6,6.599384E-1,-2.4200176E-1,3.7442544E-1,1.3070788E0,-1.3075473E0,-1.464147E-1,9.4673134E-2,1.3876046E-2,8.6545505E-2,2.5278684E-1,-6.121672E-1,-1.15207076E-1,6.4000376E-3,-6.574206E-2],"categories":[],"categories_nodes":[],"categories_segments":[],"categories_sizes":[],"default_left":[0,0,0,0,0,0,0,0,0,0,0,0,0,0,0],"id":29,"left_children":[1,3,5,7,9,11,13,-1,-1,-1,-1,-1,-1,-1,-1],"loss_changes":[8.9598945E4,2.7812305E4,4.1810008E4,1.4087162E4,2.4841453E4,2.5286453E4,4.0504727E4,0E0,0E0,0E0,0E0,0E0,0E0,0E0,0E0],"parents":[2147483647,0,0,1,1,2,2,3,3,4,4,5,5,6,6],"right_children":[2,4,6,8,10,12,14,-1,-1,-1,-1,-1,-1,-1,-1],"split_conditions":[-9.317693E-1,1.7901069E-1,-1.5186601E0,-7.071074E-1,8.1134784E-1,-1.6508332E0,1.0000008E0,9.4673134E-2,1.3876046E-2,8.6545505E-2,2.5278684E-1,-6.121672E-1,-1.15207076E-1,6.4000376E-3,-6.574206E-2],"split_indices":[7,5,5,20,0,0,20,0,0,0,0,0,0,0,0],"split_type":[0,0,0,0,0,0,0,0,0,0,0,0,0,0,0],"sum_hessian":[5.61025E5,1.50528E5,4.10497E5,1.04448E5,4.608E4,3.3792E4,3.76705E5,3.0464E4,7.3984E4,3.384E4,1.224E4,1.056E3,3.2736E4,2.66833E5,1.09872E5],"tree_param":{"num_deleted":"0","num_feature":"22","num_nodes":"15","size_leaf_vector":"1"}},{"base_weights":[-2.7673002E-6,2.7482975E-1,-4.8999014E-1,7.5120103E-1,-1.0993835E-2,-1.5812246E0,-3.562233E-1,3.818616E-2,1.2128612E-1,9.071957E-2,-2.405437E-2,-1.2841418E-1,-4.2441675E-1,-1.8677378E-2,-9.913986E-2],"categories":[],"categories_nodes":[],"categories_segments":[],"categories_sizes":[],"default_left":[0,0,0,0,0,0,0,0,0,0,0,0,0,0,0],"id":30,"left_children":[1,3,5,7,9,11,13,-1,-1,-1,-1,-1,-1,-1,-1],"loss_changes":[7.55504E4,4.893878E4,2.942734E4,2.2981625E4,4.734808E4,1.7410145E4,1.9328898E4,0E0,0E0,0E0,0E0,0E0,0E0,0E0,0E0],"parents":[2147483647,0,0,1,1,2,2,3,3,4,4,5,5,6,6],"right_children":[2,4,6,8,10,12,14,-1,-1,-1,-1,-1,-1,-1,-1],"split_conditions":[6.163413E-1,-3.660276E-1,-1.3799168E0,2.1669716E-1,-1.224746E0,-1.3935503E0,1.0990716E0,3.818616E-2,1.2128612E-1,9.071957E-2,-2.405437E-2,-1.2841418E-1,-4.2441675E-1,-1.8677378E-2,-9.913986E-2],"split_indices":[7,21,0,19,20,0,3,0,0,0,0,0,0,0,0],"split_type":[0,0,0,0,0,0,0,0,0,0,0,0,0,0,0],"sum_hessian":[5.61025E5,3.59425E5,2.016E5,1.34784E5,2.24641E5,2.2013E4,1.79587E5,7.488E4,5.9904E4,4.4928E4,1.79713E5,1.9805E4,2.208E3,1.41768E5,3.7819E4],"tree_param":{"num_deleted":"0","num_feature":"22","num_nodes":"15","size_leaf_vector":"1"}},{"base_weights":[-3.3408132E-6,5.9355193E-1,-1.9984674E-1,3.3331743E-1,1.2200192E0,-1.0754312E-1,-1.2151572E0,2.6492048E-2,1.8536963E-1,8.327893E-2,2.2904232E-1,1.9666309E-2,-5.469525E-2,-1.454382E-1,-5.567289E-2],"categories":[],"categories_nodes":[],"categories_segments":[],"categories_sizes":[],"default_left":[0,0,0,0,0,0,0,0,0,0,0,0,0,0,0],"id":31,"left_children":[1,3,5,7,9,11,13,-1,-1,-1,-1,-1,-1,-1,-1],"loss_changes":[6.654795E4,2.3037625E4,3.9334137E4,1.0381906E4,1.7188332E4,5.142844E4,5.508504E3,0E0,0E0,0E0,0E0,0E0,0E0,0E0,0E0],"parents":[2147483647,0,0,1,1,2,2,3,3,4,4,5,5,6,6],"right_children":[2,4,6,8,10,12,14,-1,-1,-1,-1,-1,-1,-1,-1],"split_conditions":[-9.854553E-1,1.7901069E-1,1.5168623E0,1.6102291E0,8.1134784E-1,7.071074E-1,7.977637E-1,2.6492048E-2,1.8536963E-1,8.327893E-2,2.2904232E-1,1.9666309E-2,-5.469525E-2,-1.454382E-1,-5.567289E-2],"split_indices":[7,5,19,0,0,20,0,0,0,0,0,0,0,0,0],"split_type":[0,0,0,0,0,0,0,0,0,0,0,0,0,0,0],"sum_hessian":[5.61025E5,1.41312E5,4.19713E5,9.984E4,4.1472E4,3.84737E5,3.4976E4,9.5543E4,4.297E3,3.0456E4,1.1016E4,2.27345E5,1.57392E5,2.5654E4,9.322E3],"tree_param":{"num_deleted":"0","num_feature":"22","num_nodes":"15","size_leaf_vector":"1"}},{"base_weights":[-2.461884E-6,-3.227469E-1,3.214181E-1,-2.63619E0,-2.6707616E-1,4.17448E-1,-7.3488766E-1,-1.9059609E-1,-5.181228E-1,-4.6633072E-2,2.660017E-2,7.3995255E-2,-4.839752E-3,-9.019459E-2,-1.3878711E-2],"categories":[],"categories_nodes":[],"categories_segments":[],"categories_sizes":[],"default_left":[0,0,0,0,0,0,0,0,0,0,0,0,0,0,0],"id":32,"left_children":[1,3,5,7,9,11,13,-1,-1,-1,-1,-1,-1,-1,-1],"loss_changes":[5.8199094E4,3.605268E4,2.8513215E4,1.2215078E4,2.9035924E4,3.871107E4,2.3326182E3,0E0,0E0,0E0,0E0,0E0,0E0,0E0,0E0],"parents":[2147483647,0,0,1,1,2,2,3,3,4,4,5,5,6,6],"right_children":[2,4,6,8,10,12,14,-1,-1,-1,-1,-1,-1,-1,-1],"split_conditions":[4.458023E-1,-1.6508332E0,1.5168623E0,-1.6325016E0,8.1134784E-1,7.071074E-1,9.739743E-1,-1.9059609E-1,-5.181228E-1,-4.6633072E-2,2.660017E-2,7.3995255E-2,-4.839752E-3,-9.019459E-2,-1.3878711E-2],"split_indices":[11,0,19,2,0,20,0,0,0,0,0,0,0,0,0],"split_type":[0,0,0,0,0,0,0,0,0,0,0,0,0,0,0],"sum_hessian":[5.61025E5,2.79936E5,2.81089E5,6.577E3,2.73359E5,2.57665E5,2.3424E4,5.112E3,1.465E3,1.98983E5,7.4376E4,1.52257E5,1.05408E5,1.8296E4,5.128E3],"tree_param":{"num_deleted":"0","num_feature":"22","num_nodes":"15","size_leaf_vector":"1"}},{"base_weights":[-3.6883184E-6,2.2668177E-1,-4.041517E-1,6.365674E-1,-1.9250274E-2,-7.2629845E-1,-5.012447E-2,2.5188062E-2,9.443094E-2,7.453313E-2,-2.1039767E-2,-4.027278E-2,-1.301101E-1,1.9005674E-1,-1.506002E-2],"categories":[],"categories_nodes":[],"categories_segments":[],"categories_sizes":[],"default_left":[0,0,0,0,0,0,0,0,0,0,0,0,0,0,0],"id":33,"left_children":[1,3,5,7,9,11,13,-1,-1,-1,-1,-1,-1,-1,-1],"loss_changes":[5.1398195E4,3.6231598E4,2.2992305E4,1.595618E4,3.2831082E4,1.9631195E4,1.8825617E4,0E0,0E0,0E0,0E0,0E0,0E0,0E0,0E0],"parents":[2147483647,0,0,1,1,2,2,3,3,4,4,5,5,6,6],"right_children":[2,4,6,8,10,12,14,-1,-1,-1,-1,-1,-1,-1,-1],"split_conditions":[6.163413E-1,-3.660276E-1,9.91899E-2,7.223436E-2,-1.224746E0,1.3033983E0,1.3609423E-1,2.5188062E-2,9.443094E-2,7.453313E-2,-2.1039767E-2,-4.027278E-2,-1.301101E-1,1.9005674E-1,-1.506002E-2],"split_indices":[7,21,2,19,20,7,0,0,0,0,0,0,0,0,0],"split_type":[0,0,0,0,0,0,0,0,0,0,0,0,0,0,0],"sum_hessian":[5.61025E5,3.59425E5,2.016E5,1.34784E5,2.24641E5,1.05552E5,9.6048E4,5.9904E4,7.488E4,4.4928E4,1.79713E5,6.7536E4,3.8016E4,4.704E3,9.1344E4],"tree_param":{"num_deleted":"0","num_feature":"22","num_nodes":"15","size_leaf_vector":"1"}},{"base_weights":[-3.01466E-6,4.515859E-1,-1.7977452E-1,3.927357E-1,2.500974E0,-7.9663776E-2,-8.805362E-1,7.5761224E-3,7.027524E-2,5.0912917E-1,4.636114E-2,1.5315607E-2,-5.453028E-2,-1.0526987E-1,-4.0506076E-2],"categories":[],"categories_nodes":[],"categories_segments":[],"categories_sizes":[],"default_left":[0,0,0,0,0,0,0,0,0,0,0,0,0,0,0],"id":34,"left_children":[1,3,5,7,9,11,13,-1,-1,-1,-1,-1,-1,-1,-1],"loss_changes":[4.5545754E4,1.9265371E4,2.8151379E4,1.5259586E4,2.3529637E4,3.8065223E4,4.105703E3,0E0,0E0,0E0,0E0,0E0,0E0,0E0,0E0],"parents":[2147483647,0,0,1,1,2,2,3,3,4,4,5,5,6,6],"right_children":[2,4,6,8,10,12,14,-1,-1,-1,-1,-1,-1,-1,-1],"split_conditions":[-8.7560153E-1,1.6643618E0,1.3723996E0,1.3833208E-1,1.6779027E0,1.0000008E0,8.1134784E-1,7.5761224E-3,7.027524E-2,5.0912917E-1,4.636114E-2,1.5315607E-2,-5.453028E-2,-1.0526987E-1,-4.0506076E-2],"split_indices":[7,0,19,8,0,20,0,0,0,0,0,0,0,0,0],"split_type":[0,0,0,0,0,0,0,0,0,0,0,0,0,0,0],"sum_hessian":[5.61025E5,1.59744E5,4.01281E5,1.55286E5,4.458E3,3.51121E5,5.016E4,7.6782E4,7.8504E4,1.962E3,2.496E3,2.34081E5,1.1704E5,3.6825E4,1.3335E4],"tree_param":{"num_deleted":"0","num_feature":"22","num_nodes":"15","size_leaf_vector":"1"}},{"base_weights":[-1.8851458E-6,-3.7676778E-1,1.8664572E-1,-8.9951836E-2,-7.1572703E-1,3.9939952E-1,-1.4616793E-1,-6.4369805E-2,3.846909E-2,-4.96027E-2,-1.3230844E-1,4.8930842E-2,-5.8957685E-2,-1.0392408E-2,-1.3417338E-1],"categories":[],"categories_nodes":[],"categories_segments":[],"categories_sizes":[],"default_left":[0,0,0,0,0,0,0,0,0,0,0,0,0,0,0],"id":35,"left_children":[1,3,5,7,9,11,13,-1,-1,-1,-1,-1,-1,-1,-1],"loss_changes":[3.9452793E4,1.8068754E4,2.656486E4,2.6460297E4,1.1366125E4,2.0350543E4,7.38904E3,0E0,0E0,0E0,0E0,0E0,0E0,0E0,0E0],"parents":[2147483647,0,0,1,1,2,2,3,3,4,4,5,5,6,6],"right_children":[2,4,6,8,10,12,14,-1,-1,-1,-1,-1,-1,-1,-1],"split_conditions":[-5.7972485E-1,3.6602256E-1,-6.786604E-2,7.223436E-2,1.0990716E0,1.5168623E0,1.705966E0,-6.4369805E-2,3.846909E-2,-4.96027E-2,-1.3230844E-1,4.8930842E-2,-5.8957685E-2,-1.0392408E-2,-1.3417338E-1],"split_indices":[5,21,7,19,3,19,5,0,0,0,0,0,0,0,0],"split_type":[0,0,0,0,0,0,0,0,0,0,0,0,0,0,0],"sum_hessian":[5.61025E5,1.85856E5,3.75169E5,1.00672E5,8.5184E4,2.28865E5,1.46304E5,4.6464E4,5.4208E4,6.2557E4,2.2627E4,2.09793E5,1.9072E4,1.41312E5,4.992E3],"tree_param":{"num_deleted":"0","num_feature":"22","num_nodes":"15","size_leaf_vector":"1"}},{"base_weights":[-2.4774995E-6,9.0016134E-2,-6.7019147E-1,4.3673965E-1,-1.1801805E-1,-5.6949425E0,-5.889422E-1,6.4551937E-3,7.3448636E-2,4.8377715E-2,-2.6846757E-2,2.1544945E-1,-7.439736E-1,-2.9987749E-3,-1.0078768E-1],"categories":[],"categories_nodes":[],"categories_segments":[],"categories_sizes":[],"default_left":[0,0,0,0,0,0,0,0,0,0,0,0,0,0,0],"id":36,"left_children":[1,3,5,7,9,11,13,-1,-1,-1,-1,-1,-1,-1,-1],"loss_changes":[3.384647E4,3.567529E4,2.7118398E4,2.0553637E4,2.7987977E4,1.4492324E4,1.5308998E4,0E0,0E0,0E0,0E0,0E0,0E0,0E0,0E0],"parents":[2147483647,0,0,1,1,2,2,3,3,4,4,5,5,6,6],"right_children":[2,4,6,8,10,12,14,-1,-1,-1,-1,-1,-1,-1,-1],"split_conditions":[1.3213928E0,-3.660276E-1,-1.7049721E0,7.223436E-2,-1.224746E0,1.3526607E0,-5.2024454E-2,6.4551937E-3,7.3448636E-2,4.8377715E-2,-2.6846757E-2,2.1544945E-1,-7.439736E-1,-2.9987749E-3,-1.0078768E-1],"split_indices":[7,21,0,19,20,7,3,0,0,0,0,0,0,0,0],"split_type":[0,0,0,0,0,0,0,0,0,0,0,0,0,0,0],"sum_hessian":[5.61025E5,4.94593E5,6.6432E4,1.85472E5,3.09121E5,1.056E3,6.5376E4,8.2432E4,1.0304E5,6.1824E4,2.47297E5,1.92E2,8.64E2,2.8008E4,3.7368E4],"tree_param":{"num_deleted":"0","num_feature":"22","num_nodes":"15","size_leaf_vector":"1"}},{"base_weights":[-3.1143866E-6,-3.3495066E-1,1.6592792E-1,-5.121698E-1,1.5500854E-1,3.4895027E-1,-1.2535602E-1,-3.863847E-2,-2.0613013E-1,4.2935543E-2,-4.678202E-2,4.2666174E-2,-5.0585754E-2,-1.8304659E-2,6.712895E-2],"categories":[],"categories_nodes":[],"categories_segments":[],"categories_sizes":[],"default_left":[0,0,0,0,0,0,0,0,0,0,0,0,0,0,0],"id":37,"left_children":[1,3,5,7,9,11,13,-1,-1,-1,-1,-1,-1,-1,-1],"loss_changes":[3.1180863E4,1.613807E4,2.000091E4,2.6595129E4,8.4359375E3,1.5305443E4,6.653552E3,0E0,0E0,0E0,0E0,0E0,0E0,0E0,0E0],"parents":[2147483647,0,0,1,1,2,2,3,3,4,4,5,5,6,6],"right_children":[2,4,6,8,10,12,14,-1,-1,-1,-1,-1,-1,-1,-1],"split_conditions":[-5.7972485E-1,7.977637E-1,8.4290427E-1,6.218001E-1,-9.3064004E-1,1.5168623E0,1.4748944E0,-3.863847E-2,-2.0613013E-1,4.2935543E-2,-4.678202E-2,4.2666174E-2,-5.0585754E-2,-1.8304659E-2,6.712895E-2],"split_indices":[5,0,5,0,5,19,0,0,0,0,0,0,0,0,0],"split_type":[0,0,0,0,0,0,0,0,0,0,0,0,0,0,0],"sum_hessian":[5.61025E5,1.85856E5,3.75169E5,1.36488E5,4.9368E4,2.30401E5,1.44768E5,1.26239E5,1.0249E4,3.4272E4,1.5096E4,2.11201E5,1.92E4,1.34993E5,9.775E3],"tree_param":{"num_deleted":"0","num_feature":"22","num_nodes":"15","size_leaf_vector":"1"}},{"base_weights":[-3.0392357E-6,-7.203574E-1,6.916941E-2,-5.880642E-1,-3.408897E0,2.1356294E-1,-2.8150064E-1,-3.1030408E-1,-5.027442E-2,-5.526373E-1,-1.0061991E-1,3.3190276E-2,-6.7397535E-2,-4.278892E-2,1.228567E-2],"categories":[],"categories_nodes":[],"categories_segments":[],"categories_sizes":[],"default_left":[0,0,0,0,0,0,0,0,0,0,0,0,0,0,0],"id":38,"left_children":[1,3,5,7,9,11,13,-1,-1,-1,-1,-1,-1,-1,-1],"loss_changes":[2.7955234E4,1.7480514E4,2.5918537E4,1.0051201E4,1.172148E4,3.8082195E4,8.837433E3,0E0,0E0,0E0,0E0,0E0,0E0,0E0,0E0],"parents":[2147483647,0,0,1,1,2,2,3,3,4,4,5,5,6,6],"right_children":[2,4,6,8,10,12,14,-1,-1,-1,-1,-1,-1,-1,-1],"split_conditions":[-1.4238181E0,1.3708085E0,1.0000008E0,-1.6508332E0,4.1974422E-1,1.5168623E0,8.1134784E-1,-3.1030408E-1,-5.027442E-2,-5.526373E-1,-1.0061991E-1,3.3190276E-2,-6.7397535E-2,-4.278892E-2,1.228567E-2],"split_indices":[5,3,20,0,6,19,0,0,0,0,0,0,0,0,0],"split_type":[0,0,0,0,0,0,0,0,0,0,0,0,0,0,0],"sum_hessian":[5.61025E5,4.9152E4,5.11873E5,4.6848E4,2.304E3,3.62577E5,1.49296E5,1.536E3,4.5312E4,1.224E3,1.08E3,3.19921E5,4.2656E4,1.09613E5,3.9683E4],"tree_param":{"num_deleted":"0","num_feature":"22","num_nodes":"15","size_leaf_vector":"1"}},{"base_weights":[-4.6600135E-6,2.5390834E-1,-1.8303834E-1,5.0001466E-1,-8.604814E-2,-3.4165302E-1,2.5535944E-1,6.788443E-2,6.570354E-3,-3.9934423E-2,1.424054E-2,-1.8746595E-1,-2.9344955E-2,-3.5504426E-3,5.8233876E-2],"categories":[],"categories_nodes":[],"categories_segments":[],"categories_sizes":[],"default_left":[0,0,0,0,0,0,0,0,0,0,0,0,0,0,0],"id":39,"left_children":[1,3,5,7,9,11,13,-1,-1,-1,-1,-1,-1,-1,-1],"loss_changes":[2.6073521E4,1.966226E4,2.2670113E4,1.0587766E4,7.063584E3,1.7690285E4,8.237857E3,0E0,0E0,0E0,0E0,0E0,0E0,0E0,0E0],"parents":[2147483647,0,0,1,1,2,2,3,3,4,4,5,5,6,6],"right_children":[2,4,6,8,10,12,14,-1,-1,-1,-1,-1,-1,-1,-1],"split_conditions":[6.78196E-3,-6.786604E-2,8.1134784E-1,1.0000008E0,-5.2024454E-2,-1.6508332E0,-5.2024454E-2,6.788443E-2,6.570354E-3,-3.9934423E-2,1.424054E-2,-1.8746595E-1,-2.9344955E-2,-3.5504426E-3,5.8233876E-2],"split_indices":[9,7,0,20,3,0,3,0,0,0,0,0,0,0,0],"split_type":[0,0,0,0,0,0,0,0,0,0,0,0,0,0,0],"sum_hessian":[5.61025E5,2.35009E5,3.26016E5,1.36321E5,9.8688E4,2.394E5,8.6616E4,9.6561E4,3.976E4,4.1616E4,5.7072E4,7.297E3,2.32103E5,4.584E4,4.0776E4],"tree_param":{"num_deleted":"0","num_feature":"22","num_nodes":"15","size_leaf_vector":"1"}},{"base_weights":[-4.4921226E-6,2.652077E-1,-1.5913166E-1,-4.9620915E-2,5.170689E-1,-2.9388735E-1,2.1312259E-1,3.322604E-2,-3.0391956E-2,6.2951945E-2,-1.7189262E-2,-7.550308E-2,-1.6451837E-2,5.8049727E-2,9.723565E-4],"categories":[],"categories_nodes":[],"categories_segments":[],"categories_sizes":[],"default_left":[0,0,0,0,0,0,0,0,0,0,0,0,0,0,0],"id":40,"left_children":[1,3,5,7,9,11,13,-1,-1,-1,-1,-1,-1,-1,-1],"loss_changes":[2.3676727E4,1.6682105E4,1.758945E4,9.080549E3,9.055355E3,1.53585625E4,6.96394E3,0E0,0E0,0E0,0E0,0E0,0E0,0E0,0E0],"parents":[2147483647,0,0,1,1,2,2,3,3,4,4,5,5,6,6],"right_children":[2,4,6,8,10,12,14,-1,-1,-1,-1,-1,-1,-1,-1],"split_conditions":[-3.660276E-1,7.223436E-2,8.1134784E-1,-4.2624474E-1,1.2838578E0,-9.6857685E-1,-6.0730433E-1,3.322604E-2,-3.0391956E-2,6.2951945E-2,-1.7189262E-2,-7.550308E-2,-1.6451837E-2,5.8049727E-2,9.723565E-4],"split_indices":[21,19,0,7,7,5,7,0,0,0,0,0,0,0,0],"split_type":[0,0,0,0,0,0,0,0,0,0,0,0,0,0,0],"sum_hessian":[5.61025E5,2.10384E5,3.50641E5,9.3504E4,1.1688E5,2.57446E5,9.3195E4,3.7376E4,5.6128E4,1.0048E5,1.64E4,5.64E4,2.01046E5,3.321E4,5.9985E4],"tree_param":{"num_deleted":"0","num_feature":"22","num_nodes":"15","size_leaf_vector":"1"}},{"base_weights":[-4.013333E-6,5.835481E-2,-6.419398E-1,2.590371E-1,-2.3152041E-1,-7.962777E-1,-2.1556193E-1,4.273202E-2,-1.7974732E-2,-5.9289165E-2,-7.578449E-3,-1.1460854E-1,-6.245221E-2,2.1537825E-2,-4.059826E-2],"categories":[],"categories_nodes":[],"categories_segments":[],"categories_sizes":[],"default_left":[0,0,0,0,0,0,0,0,0,0,0,0,0,0,0],"id":41,"left_children":[1,3,5,7,9,11,13,-1,-1,-1,-1,-1,-1,-1,-1],"loss_changes":[2.101754E4,2.9916832E4,3.0764688E3,2.2439309E4,1.1840104E4,2.0617012E3,1.01984607E3,0E0,0E0,0E0,0E0,0E0,0E0,0E0,0E0],"parents":[2147483647,0,0,1,1,2,2,3,3,4,4,5,5,6,6],"right_children":[2,4,6,8,10,12,14,-1,-1,-1,-1,-1,-1,-1,-1],"split_conditions":[1.5168623E0,7.071074E-1,8.1134784E-1,9.206438E-1,-6.84051E-1,-4.415963E-1,-7.971102E-1,4.273202E-2,-1.7974732E-2,-5.9289165E-2,-7.578449E-3,-1.1460854E-1,-6.245221E-2,2.1537825E-2,-4.059826E-2],"split_indices":[19,20,0,7,5,8,7,0,0,0,0,0,0,0,0],"split_type":[0,0,0,0,0,0,0,0,0,0,0,0,0,0,0],"sum_hessian":[5.61025E5,5.14273E5,4.6752E4,3.03889E5,2.10384E5,3.4326E4,1.2426E4,2.19649E5,8.424E4,6.336E4,1.47024E5,1.1302E4,2.3024E4,3.808E3,8.618E3],"tree_param":{"num_deleted":"0","num_feature":"22","num_nodes":"15","size_leaf_vector":"1"}},{"base_weights":[-4.1035514E-6,-1.0978452E-1,3.0325645E-1,-3.6369618E-2,-7.1929437E-1,7.399684E-1,1.0527507E-1,2.3473402E-2,-1.9903142E-2,-5.5610347E-1,-6.1187234E-2,2.8070396E-2,1.6230963E-1,-1.2031428E-2,3.585283E-2],"categories":[],"categories_nodes":[],"categories_segments":[],"categories_sizes":[],"default_left":[0,0,0,0,0,0,0,0,0,0,0,0,0,0,0],"id":42,"left_children":[1,3,5,7,9,11,13,-1,-1,-1,-1,-1,-1,-1,-1],"loss_changes":[1.867775E4,1.8431932E4,1.2892358E4,1.6212049E4,2.3027578E4,1.8864713E4,5.8617637E3,0E0,0E0,0E0,0E0,0E0,0E0,0E0,0E0],"parents":[2147483647,0,0,1,1,2,2,3,3,4,4,5,5,6,6],"right_children":[2,4,6,8,10,12,14,-1,-1,-1,-1,-1,-1,-1,-1],"split_conditions":[8.1134784E-1,1.33782E0,-7.768829E-1,-3.660276E-1,-1.7049721E0,1.6952649E-1,-5.2024454E-2,2.3473402E-2,-1.9903142E-2,-5.5610347E-1,-6.1187234E-2,2.8070396E-2,1.6230963E-1,-1.2031428E-2,3.585283E-2],"split_indices":[0,7,7,21,0,5,3,0,0,0,0,0,0,0,0],"split_type":[0,0,0,0,0,0,0,0,0,0,0,0,0,0,0],"sum_hessian":[5.61025E5,4.11913E5,1.49112E5,3.67633E5,4.428E4,4.6512E4,1.026E5,1.37862E5,2.29771E5,9.6E2,4.332E4,3.06E4,1.5912E4,5.4264E4,4.8336E4],"tree_param":{"num_deleted":"0","num_feature":"22","num_nodes":"15","size_leaf_vector":"1"}},{"base_weights":[-4.430186E-6,-1.1292502E0,2.7107874E-2,-7.662712E-1,-4.022656E0,7.842822E-2,-5.374052E-1,-4.2764448E-2,-4.0888658E-1,3.6241314E-1,-4.8583302E-1,2.5915077E-2,-1.826155E-2,-6.3914925E-2,-1.3067094E-2],"categories":[],"categories_nodes":[],"categories_segments":[],"categories_sizes":[],"default_left":[0,0,0,0,0,0,0,0,0,0,0,0,0,0,0],"id":43,"left_children":[1,3,5,7,9,11,13,-1,-1,-1,-1,-1,-1,-1,-1],"loss_changes":[1.7176658E4,1.3811848E4,1.5872473E4,1.3149771E4,9.385676E3,2.3692883E4,1.889331E3,0E0,0E0,0E0,0E0,0E0,0E0,0E0,0E0],"parents":[2147483647,0,0,1,1,2,2,3,3,4,4,5,5,6,6],"right_children":[2,4,6,8,10,12,14,-1,-1,-1,-1,-1,-1,-1,-1],"split_conditions":[-1.6508332E0,-1.6325016E0,1.5168623E0,1.3719084E0,-1.6704072E0,7.071074E-1,1.0551455E0,-4.2764448E-2,-4.0888658E-1,3.6241314E-1,-4.8583302E-1,2.5915077E-2,-1.826155E-2,-6.3914925E-2,-1.3067094E-2],"split_indices":[0,2,19,7,5,20,0,0,0,0,0,0,0,0,0],"split_type":[0,0,0,0,0,0,0,0,0,0,0,0,0,0,0],"sum_hessian":[5.61025E5,1.3153E4,5.47872E5,1.1688E4,1.465E3,5.02216E5,4.5656E4,1.0608E4,1.08E3,1.44E2,1.321E3,2.96764E5,2.05452E5,3.652E4,9.136E3],"tree_param":{"num_deleted":"0","num_feature":"22","num_nodes":"15","size_leaf_vector":"1"}},{"base_weights":[-5.1468173E-6,1.9436187E-1,-1.40115E-1,3.9638436E-1,-8.469968E-2,-2.1688579E-1,4.313945E-1,2.4904817E-2,8.1332624E-2,-3.6284525E-2,1.1812246E-2,-1.3959737E-1,-1.8616533E-2,6.1482824E-2,-3.5579327E-2],"categories":[],"categories_nodes":[],"categories_segments":[],"categories_sizes":[],"default_left":[0,0,0,0,0,0,0,0,0,0,0,0,0,0,0],"id":44,"left_children":[1,3,5,7,9,11,13,-1,-1,-1,-1,-1,-1,-1,-1],"loss_changes":[1.5278297E4,1.3249123E4,1.430417E4,8.374145E3,5.567492E3,1.0410341E4,5.5750903E3,0E0,0E0,0E0,0E0,0E0,0E0,0E0,0E0],"parents":[2147483647,0,0,1,1,2,2,3,3,4,4,5,5,6,6],"right_children":[2,4,6,8,10,12,14,-1,-1,-1,-1,-1,-1,-1,-1],"split_conditions":[6.78196E-3,-6.786604E-2,1.3257656E0,1.0990716E0,-5.2024454E-2,-1.6508332E0,1.3416296E0,2.4904817E-2,8.1332624E-2,-3.6284525E-2,1.1812246E-2,-1.3959737E-1,-1.8616533E-2,6.1482824E-2,-3.5579327E-2],"split_indices":[9,7,0,3,3,0,6,0,0,0,0,0,0,0,0],"split_type":[0,0,0,0,0,0,0,0,0,0,0,0,0,0,0],"sum_hessian":[5.61025E5,2.35009E5,3.26016E5,1.36321E5,9.8688E4,2.87409E5,3.8607E4,1.00728E5,3.5593E4,4.1616E4,5.7072E4,7.297E3,2.80112E5,3.1311E4,7.296E3],"tree_param":{"num_deleted":"0","num_feature":"22","num_nodes":"15","size_leaf_vector":"1"}},{"base_weights":[-4.7224376E-6,1.5165582E-1,-1.7923911E-1,-2.234922E-1,3.1838855E-1,-7.299458E-1,-1.169147E-1,-7.791974E-2,-9.405357E-3,4.2947777E-2,-1.39999855E-2,-6.0212135E-2,-3.9002293E-1,-3.6504097E-2,-5.91546E-4],"categories":[],"categories_nodes":[],"categories_segments":[],"categories_sizes":[],"default_left":[0,0,0,0,0,0,0,0,0,0,0,0,0,0,0],"id":45,"left_children":[1,3,5,7,9,11,13,-1,-1,-1,-1,-1,-1,-1,-1],"loss_changes":[1.5250275E4,1.9008162E4,8.825527E3,6.725715E3,1.0713285E4,1.0591424E4,6.362077E3,0E0,0E0,0E0,0E0,0E0,0E0,0E0,0E0],"parents":[2147483647,0,0,1,1,2,2,3,3,4,4,5,5,6,6],"right_children":[2,4,6,8,10,12,14,-1,-1,-1,-1,-1,-1,-1,-1],"split_conditions":[3.6602256E-1,-2.1669124E-1,-1.3799168E0,-1.0729029E0,1.1638396E0,-1.3935503E0,-6.555984E-1,-7.791974E-2,-9.405357E-3,4.2947777E-2,-1.39999855E-2,-6.0212135E-2,-3.9002293E-1,-3.6504097E-2,-5.91546E-4],"split_indices":[21,19,0,5,7,0,5,0,0,0,0,0,0,0,0],"split_type":[0,0,0,0,0,0,0,0,0,0,0,0,0,0,0],"sum_hessian":[5.61025E5,3.03888E5,2.57137E5,9.3504E4,2.10384E5,2.6141E4,2.30996E5,1.7664E4,7.584E4,1.69344E5,4.104E4,2.5129E4,1.012E3,7.1396E4,1.596E5],"tree_param":{"num_deleted":"0","num_feature":"22","num_nodes":"15","size_leaf_vector":"1"}},{"base_weights":[-5.293333E-6,-9.217714E-2,2.5461283E-1,-3.4294065E-2,-6.0164243E-1,6.2124544E-1,8.840162E-2,1.7727513E-2,-1.6123524E-2,-4.9776927E-1,-5.044485E-2,2.111194E-2,1.4098866E-1,3.3997314E-3,9.567784E-2],"categories":[],"categories_nodes":[],"categories_segments":[],"categories_sizes":[],"default_left":[0,0,0,0,0,0,0,0,0,0,0,0,0,0,0],"id":46,"left_children":[1,3,5,7,9,11,13,-1,-1,-1,-1,-1,-1,-1,-1],"loss_changes":[1.3166531E4,1.2147083E4,9.08666E3,9.934105E3,1.78718E4,1.5043975E4,4.847191E3,0E0,0E0,0E0,0E0,0E0,0E0,0E0,0E0],"parents":[2147483647,0,0,1,1,2,2,3,3,4,4,5,5,6,6],"right_children":[2,4,6,8,10,12,14,-1,-1,-1,-1,-1,-1,-1,-1],"split_conditions":[8.1134784E-1,1.3454398E0,-7.768829E-1,-3.660276E-1,-1.7049721E0,1.6952649E-1,1.3468363E0,1.7727513E-2,-1.6123524E-2,-4.9776927E-1,-5.044485E-2,2.111194E-2,1.4098866E-1,3.3997314E-3,9.567784E-2],"split_indices":[0,7,7,21,0,5,4,0,0,0,0,0,0,0,0],"split_type":[0,0,0,0,0,0,0,0,0,0,0,0,0,0,0],"sum_hessian":[5.61025E5,4.11913E5,1.49112E5,3.69889E5,4.2024E4,4.6512E4,1.026E5,1.38708E5,2.31181E5,9.12E2,4.1112E4,3.06E4,1.5912E4,9.6552E4,6.048E3],"tree_param":{"num_deleted":"0","num_feature":"22","num_nodes":"15","size_leaf_vector":"1"}},{"base_weights":[-5.2755586E-6,4.414748E-2,-4.856771E-1,1.9338155E-1,-1.7141344E-1,-7.4114734E-1,-3.602685E-1,3.1064628E-2,-1.54908495E-2,-4.3789577E-2,-5.6570685E-3,-8.521884E-2,-1.417163E-2,-4.4595126E-2,-3.6077441E-3],"categories":[],"categories_nodes":[],"categories_segments":[],"categories_sizes":[],"default_left":[0,0,0,0,0,0,0,0,0,0,0,0,0,0,0],"id":47,"left_children":[1,3,5,7,9,11,13,-1,-1,-1,-1,-1,-1,-1,-1],"loss_changes":[1.2030523E4,1.654373E4,1.4976123E3,1.2411563E4,6.438506E3,1.024459E3,8.7111694E2,0E0,0E0,0E0,0E0,0E0,0E0,0E0,0E0],"parents":[2147483647,0,0,1,1,2,2,3,3,4,4,5,5,6,6],"right_children":[2,4,6,8,10,12,14,-1,-1,-1,-1,-1,-1,-1,-1],"split_conditions":[1.5168623E0,7.071074E-1,-4.415963E-1,1.2253159E0,-6.84051E-1,1.2778038E0,1.0145907E0,3.1064628E-2,-1.54908495E-2,-4.3789577E-2,-5.6570685E-3,-8.521884E-2,-1.417163E-2,-4.4595126E-2,-3.6077441E-3],"split_indices":[19,20,8,10,5,4,0,0,0,0,0,0,0,0,0],"split_type":[0,0,0,0,0,0,0,0,0,0,0,0,0,0,0],"sum_hessian":[5.61025E5,5.14273E5,4.6752E4,3.03889E5,2.10384E5,1.5392E4,3.136E4,2.27345E5,7.6544E4,6.336E4,1.47024E5,1.2986E4,2.406E3,2.4804E4,6.556E3],"tree_param":{"num_deleted":"0","num_feature":"22","num_nodes":"15","size_leaf_vector":"1"}},{"base_weights":[-5.158539E-6,-8.246499E-2,2.2778425E-1,1.002717E-1,-2.3673399E-1,5.453664E-1,8.380974E-2,-3.9491486E-3,8.8575475E-2,-1.855919E-1,-1.7054992E-2,1.7627342E-2,1.255105E-1,3.8871337E-2,-6.912745E-3],"categories":[],"categories_nodes":[],"categories_segments":[],"categories_sizes":[],"default_left":[0,0,0,0,0,0,0,0,0,0,0,0,0,0,0],"id":48,"left_children":[1,3,5,7,9,11,13,-1,-1,-1,-1,-1,-1,-1,-1],"loss_changes":[1.0538037E4,1.1612129E4,6.8179575E3,2.0700455E4,2.3935355E4,1.2184303E4,4.7844243E3,0E0,0E0,0E0,0E0,0E0,0E0,0E0,0E0],"parents":[2147483647,0,0,1,1,2,2,3,3,4,4,5,5,6,6],"right_children":[2,4,6,8,10,12,14,-1,-1,-1,-1,-1,-1,-1,-1],"split_conditions":[8.1134784E-1,-5.6777245E-1,-7.768829E-1,-7.436372E-1,-5.136213E-1,1.6952649E-1,-9.3064004E-1,-3.9491486E-3,8.8575475E-2,-1.855919E-1,-1.7054992E-2,1.7627342E-2,1.255105E-1,3.8871337E-2,-6.912745E-3],"split_indices":[0,0,7,0,0,5,5,0,0,0,0,0,0,0,0],"split_type":[0,0,0,0,0,0,0,0,0,0,0,0,0,0,0],"sum_hessian":[5.61025E5,4.11913E5,1.49112E5,1.88559E5,2.23354E5,4.6512E4,1.026E5,1.60077E5,2.8482E4,8.77E3,2.14584E5,3.06E4,1.5912E4,3.4272E4,6.8328E4],"tree_param":{"num_deleted":"0","num_feature":"22","num_nodes":"15","size_leaf_vector":"1"}},{"base_weights":[-4.617976E-6,-8.7900674E-1,2.1099532E-2,-5.623108E-1,-3.4035494E0,7.194542E-2,-3.3481753E-1,-3.0033875E-2,-3.1328008E-1,3.5340828E-1,-4.1619107E-1,2.2729008E-2,-1.351809E-2,-5.8666766E-2,-2.1120964E-2],"categories":[],"categories_nodes":[],"categories_segments":[],"categories_sizes":[],"default_left":[0,0,0,0,0,0,0,0,0,0,0,0,0,0,0],"id":49,"left_children":[1,3,5,7,9,11,13,-1,-1,-1,-1,-1,-1,-1,-1],"loss_changes":[1.0407384E4,1.0514872E4,9.914837E3,7.8703916E3,7.72767E3,1.5424836E4,2.1318608E3,0E0,0E0,0E0,0E0,0E0,0E0,0E0,0E0],"parents":[2147483647,0,0,1,1,2,2,3,3,4,4,5,5,6,6],"right_children":[2,4,6,8,10,12,14,-1,-1,-1,-1,-1,-1,-1,-1],"split_conditions":[-1.6508332E0,-1.6325016E0,1.3723996E0,1.3719084E0,-1.6704072E0,7.071074E-1,-4.415963E-1,-3.0033875E-2,-3.1328008E-1,3.5340828E-1,-4.1619107E-1,2.2729008E-2,-1.351809E-2,-5.8666766E-2,-2.1120964E-2],"split_indices":[0,2,19,7,5,20,8,0,0,0,0,0,0,0,0],"split_type":[0,0,0,0,0,0,0,0,0,0,0,0,0,0,0],"sum_hessian":[5.61025E5,1.3153E4,5.47872E5,1.1688E4,1.465E3,4.79388E5,6.8484E4,1.0608E4,1.08E3,1.44E2,1.321E3,2.73936E5,2.05452E5,2.2545E4,4.5939E4],"tree_param":{"num_deleted":"0","num_feature":"22","num_nodes":"15","size_leaf_vector":"1"}},{"base_weights":[-5.151078E-6,1.4376101E-1,-1.2245292E-1,4.9255958E-1,3.8308855E-2,-1.8282394E-1,3.6943036E-1,5.8606204E-2,-1.408188E-1,3.432948E-2,-5.411478E-3,-1.0810203E-2,-6.1178964E-2,5.1610727E-2,-5.1129837E-2],"categories":[],"categories_nodes":[],"categories_segments":[],"categories_sizes":[],"default_left":[0,0,0,0,0,0,0,0,0,0,0,0,0,0,0],"id":50,"left_children":[1,3,5,7,9,11,13,-1,-1,-1,-1,-1,-1,-1,-1],"loss_changes":[9.876232E3,9.491464E3,8.99712E3,1.0647409E4,5.58534E3,8.649698E3,4.278918E3,0E0,0E0,0E0,0E0,0E0,0E0,0E0,0E0],"parents":[2147483647,0,0,1,1,2,2,3,3,4,4,5,5,6,6],"right_children":[2,4,6,8,10,12,14,-1,-1,-1,-1,-1,-1,-1,-1],"split_conditions":[-1.7007239E-1,4.3508393E-1,1.3529091E0,1.3468363E0,-1.2203019E0,1.3213928E0,1.6779027E0,5.8606204E-2,-1.408188E-1,3.432948E-2,-5.411478E-3,-1.0810203E-2,-6.1178964E-2,5.1610727E-2,-5.1129837E-2],"split_indices":[6,5,0,4,9,7,0,0,0,0,0,0,0,0,0],"split_type":[0,0,0,0,0,0,0,0,0,0,0,0,0,0,0],"sum_hessian":[5.61025E5,2.58049E5,3.02976E5,5.9904E4,1.98145E5,2.69856E5,3.312E4,5.7096E4,2.808E3,4.6081E4,1.52064E5,2.29824E5,4.0032E4,2.8392E4,4.728E3],"tree_param":{"num_deleted":"0","num_feature":"22","num_nodes":"15","size_leaf_vector":"1"}},{"base_weights":[-4.9747487E-6,1.17578164E-1,-1.3896623E-1,-6.2189955E-2,3.2730657E-1,-5.906695E-1,-8.784624E-2,-2.7609045E-2,4.2472403E-3,2.018492E-2,6.738596E-2,-4.766961E-2,-3.4174824E-1,-2.5812145E-3,-3.669865E-2],"categories":[],"categories_nodes":[],"categories_segments":[],"categories_sizes":[],"default_left":[0,0,0,0,0,0,0,0,0,0,0,0,0,0,0],"id":51,"left_children":[1,3,5,7,9,11,13,-1,-1,-1,-1,-1,-1,-1,-1],"loss_changes":[9.166901E3,1.1457389E4,5.937539E3,3.6633176E3,6.097907E3,8.420841E3,3.999984E3,0E0,0E0,0E0,0E0,0E0,0E0,0E0,0E0],"parents":[2147483647,0,0,1,1,2,2,3,3,4,4,5,5,6,6],"right_children":[2,4,6,8,10,12,14,-1,-1,-1,-1,-1,-1,-1,-1],"split_conditions":[3.6602256E-1,2.1669716E-1,-1.3799168E0,-5.892091E-1,8.1134784E-1,-1.3935503E0,1.5168623E0,-2.7609045E-2,4.2472403E-3,2.018492E-2,6.738596E-2,-4.766961E-2,-3.4174824E-1,-2.5812145E-3,-3.669865E-2],"split_indices":[21,19,0,5,0,0,19,0,0,0,0,0,0,0,0],"split_type":[0,0,0,0,0,0,0,0,0,0,0,0,0,0,0],"sum_hessian":[5.61025E5,3.03888E5,2.57137E5,1.63632E5,1.40256E5,2.6141E4,2.30996E5,5.376E4,1.09872E5,1.02978E5,3.7278E4,2.5129E4,1.012E3,1.88996E5,4.2E4],"tree_param":{"num_deleted":"0","num_feature":"22","num_nodes":"15","size_leaf_vector":"1"}},{"base_weights":[-5.2145047E-6,-7.6794624E-1,1.8432446E-2,2.7906497E0,-9.597558E-1,3.2314605E-1,-2.9573597E-2,3.355007E-2,4.1506964E-1,-6.868135E-2,-3.0102643E-1,6.384119E-2,-2.6190475E-2,-1.2741052E-2,1.8313935E-2],"categories":[],"categories_nodes":[],"categories_segments":[],"categories_sizes":[],"default_left":[0,0,0,0,0,0,0,0,0,0,0,0,0,0,0],"id":52,"left_children":[1,3,5,7,9,11,13,-1,-1,-1,-1,-1,-1,-1,-1],"loss_changes":[7.943601E3,8.98124E3,8.0143477E3,2.2458325E3,6.983741E3,1.3753791E4,9.8501E3,0E0,0E0,0E0,0E0,0E0,0E0,0E0,0E0],"parents":[2147483647,0,0,1,1,2,2,3,3,4,4,5,5,6,6],"right_children":[2,4,6,8,10,12,14,-1,-1,-1,-1,-1,-1,-1,-1],"split_conditions":[-1.6508332E0,-1.370886E0,-1.1904185E0,-1.4083662E0,-1.6325016E0,5.721968E-1,8.1134784E-1,3.355007E-2,4.1506964E-1,-6.868135E-2,-3.0102643E-1,6.384119E-2,-2.6190475E-2,-1.2741052E-2,1.8313935E-2],"split_indices":[0,7,0,7,2,7,0,0,0,0,0,0,0,0,0],"split_type":[0,0,0,0,0,0,0,0,0,0,0,0,0,0,0],"sum_hessian":[5.61025E5,1.3153E4,5.47872E5,6.72E2,1.2481E4,7.4566E4,4.73306E5,2.4E2,4.32E2,1.1016E4,1.465E3,4.8455E4,2.6111E4,3.24194E5,1.49112E5],"tree_param":{"num_deleted":"0","num_feature":"22","num_nodes":"15","size_leaf_vector":"1"}},{"base_weights":[-4.491437E-6,1.3028316E-1,-1.03850506E-1,5.31529E-1,5.0032213E-2,-2.2347331E-1,9.493356E-2,2.3782482E-2,1.3434394E-1,-1.8658424E-2,1.6558876E-2,-1.0243154E-2,-7.966067E-2,-4.0339674E-3,8.4816925E-2],"categories":[],"categories_nodes":[],"categories_segments":[],"categories_sizes":[],"default_left":[0,0,0,0,0,0,0,0,0,0,0,0,0,0,0],"id":53,"left_children":[1,3,5,7,9,11,13,-1,-1,-1,-1,-1,-1,-1,-1],"loss_changes":[7.5906133E3,8.012517E3,7.423691E3,9.889393E3,5.669843E3,1.3521078E4,1.1950918E4,0E0,0E0,0E0,0E0,0E0,0E0,0E0,0E0],"parents":[2147483647,0,0,1,1,2,2,3,3,4,4,5,5,6,6],"right_children":[2,4,6,8,10,12,14,-1,-1,-1,-1,-1,-1,-1,-1],"split_conditions":[-2.4234231E-1,3.497262E-1,7.654259E-1,1.0990716E0,-4.9170402E-1,3.7223575E-1,1.4236963E0,2.3782482E-2,1.3434394E-1,-1.8658424E-2,1.6558876E-2,-1.0243154E-2,-7.966067E-2,-4.0339674E-3,8.4816925E-2],"split_indices":[6,5,4,3,3,4,9,0,0,0,0,0,0,0,0],"split_type":[0,0,0,0,0,0,0,0,0,0,0,0,0,0,0],"sum_hessian":[5.61025E5,2.48833E5,3.12192E5,4.1472E4,2.07361E5,1.94904E5,1.17288E5,3.0456E4,1.1016E4,6.804E4,1.39321E5,1.6092E5,3.3984E4,9.9432E4,1.7856E4],"tree_param":{"num_deleted":"0","num_feature":"22","num_nodes":"15","size_leaf_vector":"1"}},{"base_weights":[-3.824743E-6,1.05821066E-1,-1.2506904E-1,-1.6531643E-1,2.2632684E-1,-5.4393303E-1,-7.766554E-2,-5.6668557E-2,-7.182675E-3,6.310153E-2,1.5132059E-2,-4.431013E-2,-3.0447802E-1,8.661069E-2,-9.436763E-3],"categories":[],"categories_nodes":[],"categories_segments":[],"categories_sizes":[],"default_left":[0,0,0,0,0,0,0,0,0,0,0,0,0,0,0],"id":54,"left_children":[1,3,5,7,9,11,13,-1,-1,-1,-1,-1,-1,-1,-1],"loss_changes":[7.4251997E3,9.929195E3,5.105593E3,3.508629E3,6.385965E3,6.5907446E3,3.6412798E3,0E0,0E0,0E0,0E0,0E0,0E0,0E0,0E0],"parents":[2147483647,0,0,1,1,2,2,3,3,4,4,5,5,6,6],"right_children":[2,4,6,8,10,12,14,-1,-1,-1,-1,-1,-1,-1,-1],"split_conditions":[3.6602256E-1,-2.1669124E-1,-1.3799168E0,-1.0729029E0,-1.1904185E0,-1.3935503E0,-1.325778E0,-5.6668557E-2,-7.182675E-3,6.310153E-2,1.5132059E-2,-4.431013E-2,-3.0447802E-1,8.661069E-2,-9.436763E-3],"split_indices":[21,19,0,5,0,0,0,0,0,0,0,0,0,0,0],"split_type":[0,0,0,0,0,0,0,0,0,0,0,0,0,0,0],"sum_hessian":[5.61025E5,3.03888E5,2.57137E5,9.3504E4,2.10384E5,2.6141E4,2.30996E5,1.7664E4,7.584E4,3.2895E4,1.77489E5,2.5129E4,1.012E3,4.016E3,2.2698E5],"tree_param":{"num_deleted":"0","num_feature":"22","num_nodes":"15","size_leaf_vector":"1"}},{"base_weights":[-3.933234E-6,4.8915252E-2,-2.445983E-1,2.4328306E-1,-8.066438E-2,7.968262E-2,-3.5377938E-1,3.5572123E-2,-9.067335E-3,5.467796E-3,-2.1073785E-2,4.0347233E-2,-2.4411388E-2,-1.3078123E-1,-3.282181E-2],"categories":[],"categories_nodes":[],"categories_segments":[],"categories_sizes":[],"default_left":[0,0,0,0,0,0,0,0,0,0,0,0,0,0,0],"id":55,"left_children":[1,3,5,7,9,11,13,-1,-1,-1,-1,-1,-1,-1,-1],"loss_changes":[6.712888E3,1.177508E4,3.310605E3,7.0221533E3,4.938287E3,2.4694414E3,1.7054648E3,0E0,0E0,0E0,0E0,0E0,0E0,0E0,0E0],"parents":[2147483647,0,0,1,1,2,2,3,3,4,4,5,5,6,6],"right_children":[2,4,6,8,10,12,14,-1,-1,-1,-1,-1,-1,-1,-1],"split_conditions":[1.2279367E0,1.9934163E-16,-9.854553E-1,1.2253159E0,-3.6539715E-2,1.5168623E0,-1.6508332E0,3.5572123E-2,-9.067335E-3,5.467796E-3,-2.1073785E-2,4.0347233E-2,-2.4411388E-2,-1.3078123E-1,-3.282181E-2],"split_indices":[19,20,7,10,6,19,0,0,0,0,0,0,0,0,0],"split_type":[0,0,0,0,0,0,0,0,0,0,0,0,0,0,0],"sum_hessian":[5.61025E5,4.67521E5,9.3504E4,1.87009E5,2.80512E5,2.3552E4,6.9952E4,1.39905E5,4.7104E4,1.37472E5,1.4304E5,1.1776E4,1.1776E4,1.824E3,6.8128E4],"tree_param":{"num_deleted":"0","num_feature":"22","num_nodes":"15","size_leaf_vector":"1"}},{"base_weights":[-3.8015103E-6,-6.888721E-1,1.6535385E-2,2.5018342E0,-8.608523E-1,-6.829806E-2,1.6398984E-1,2.9735688E-2,3.7230286E-1,-6.1946478E-2,-2.6742938E-1,4.493713E-3,-3.0946305E-2,5.5200588E-2,-7.9178525E-4],"categories":[],"categories_nodes":[],"categories_segments":[],"categories_sizes":[],"default_left":[0,0,0,0,0,0,0,0,0,0,0,0,0,0,0],"id":56,"left_children":[1,3,5,7,9,11,13,-1,-1,-1,-1,-1,-1,-1,-1],"loss_changes":[6.391961E3,7.220256E3,6.8533916E3,1.8106733E3,5.4622393E3,9.4974795E3,1.3346464E4,0E0,0E0,0E0,0E0,0E0,0E0,0E0,0E0],"parents":[2147483647,0,0,1,1,2,2,3,3,4,4,5,5,6,6],"right_children":[2,4,6,8,10,12,14,-1,-1,-1,-1,-1,-1,-1,-1],"split_conditions":[-1.6508332E0,-1.370886E0,7.654259E-1,-1.4083662E0,-1.6325016E0,-6.361889E-2,-5.6777245E-1,2.9735688E-2,3.7230286E-1,-6.1946478E-2,-2.6742938E-1,4.493713E-3,-3.0946305E-2,5.5200588E-2,-7.9178525E-4],"split_indices":[0,7,4,7,2,4,0,0,0,0,0,0,0,0,0],"split_type":[0,0,0,0,0,0,0,0,0,0,0,0,0,0,0],"sum_hessian":[5.61025E5,1.3153E4,5.47872E5,6.72E2,1.2481E4,3.47785E5,2.00087E5,2.4E2,4.32E2,1.1016E4,1.465E3,2.36664E5,1.11121E5,6.143E4,1.38657E5],"tree_param":{"num_deleted":"0","num_feature":"22","num_nodes":"15","size_leaf_vector":"1"}},{"base_weights":[-3.238667E-6,-6.1999135E-2,1.7125599E-1,-2.1409763E-2,-5.660304E-1,-6.0618956E-2,3.2958993E-1,-5.2610603E-3,7.2322346E-2,-2.3943499E-1,-9.26205E-3,9.6631115E-3,-1.0294985E-1,6.255024E-2,5.70783E-3],"categories":[],"categories_nodes":[],"categories_segments":[],"categories_sizes":[],"default_left":[0,0,0,0,0,0,0,0,0,0,0,0,0,0,0],"id":57,"left_children":[1,3,5,7,9,11,13,-1,-1,-1,-1,-1,-1,-1,-1],"loss_changes":[5.956631E3,8.427053E3,5.4745063E3,8.856898E3,2.6571129E4,9.218574E3,7.1452754E3,0E0,0E0,0E0,0E0,0E0,0E0,0E0,0E0],"parents":[2147483647,0,0,1,1,2,2,3,3,4,4,5,5,6,6],"right_children":[2,4,6,8,10,12,14,-1,-1,-1,-1,-1,-1,-1,-1],"split_conditions":[8.1134784E-1,6.218001E-1,6.796302E-1,5.271436E-1,-9.6857685E-1,1.3295969E0,1.2581785E0,-5.2610603E-3,7.2322346E-2,-2.3943499E-1,-9.26205E-3,9.6631115E-3,-1.0294985E-1,6.255024E-2,5.70783E-3],"split_indices":[0,0,17,0,5,6,0,0,0,0,0,0,0,0,0],"split_type":[0,0,0,0,0,0,0,0,0,0,0,0,0,0,0],"sum_hessian":[5.61025E5,4.11913E5,1.49112E5,3.81215E5,3.0698E4,6.0505E4,8.8607E4,3.65885E5,1.533E4,6.313E3,2.4385E4,5.2057E4,8.448E3,4.2479E4,4.6128E4],"tree_param":{"num_deleted":"0","num_feature":"22","num_nodes":"15","size_leaf_vector":"1"}},{"base_weights":[-3.3201056E-6,-4.1377965E-1,2.3967033E-2,-2.4675037E-1,-3.8075137E0,-6.284923E-3,4.0245926E-1,1.0350404E-1,-4.6863135E-2,-1.6074769E-1,-8.195097E-1,3.417028E-2,-3.9852285E-3,6.0371865E-2,-3.491017E-2],"categories":[],"categories_nodes":[],"categories_segments":[],"categories_sizes":[],"default_left":[0,0,0,0,0,0,0,0,0,0,0,0,0,0,0],"id":58,"left_children":[1,3,5,7,9,11,13,-1,-1,-1,-1,-1,-1,-1,-1],"loss_changes":[5.56447E3,1.7413352E4,6.0720757E3,8.328148E3,1.3896576E4,5.736077E3,5.9369624E3,0E0,0E0,0E0,0E0,0E0,0E0,0E0,0E0],"parents":[2147483647,0,0,1,1,2,2,3,3,4,4,5,5,6,6],"right_children":[2,4,6,8,10,12,14,-1,-1,-1,-1,-1,-1,-1,-1],"split_conditions":[-1.5376285E0,1.3708085E0,1.4748944E0,-1.2031205E0,-4.0534356E-1,-1.2203019E0,1.6779027E0,1.0350404E-1,-4.6863135E-2,-1.6074769E-1,-8.195097E-1,3.417028E-2,-3.9852285E-3,6.0371865E-2,-3.491017E-2],"split_indices":[5,3,0,3,0,9,0,0,0,0,0,0,0,0,0],"split_type":[0,0,0,0,0,0,0,0,0,0,0,0,0,0,0],"sum_hessian":[5.61025E5,3.072E4,5.30305E5,2.928E4,1.44E3,4.91057E5,3.9248E4,4.32E3,2.496E4,9.6E2,4.8E2,4.32E4,4.47857E5,3.0958E4,8.29E3],"tree_param":{"num_deleted":"0","num_feature":"22","num_nodes":"15","size_leaf_vector":"1"}},{"base_weights":[-4.5841375E-6,1.9372956E-1,-5.0908145E-2,1.4391913E-1,1.7373904E0,-3.9747497E-4,-3.0345875E-1,-1.6846212E-2,3.476455E-2,3.4300804E-1,4.3748408E-3,9.945436E-3,-1.858367E-2,-1.08830504E-1,-2.8290918E-2],"categories":[],"categories_nodes":[],"categories_segments":[],"categories_sizes":[],"default_left":[0,0,0,0,0,0,0,0,0,0,0,0,0,0,0],"id":59,"left_children":[1,3,5,7,9,11,13,-1,-1,-1,-1,-1,-1,-1,-1],"loss_changes":[5.5327124E3,8.975705E3,5.6675854E3,7.197077E3,1.0460843E4,6.855585E3,1.1939736E3,0E0,0E0,0E0,0E0,0E0,0E0,0E0,0E0],"parents":[2147483647,0,0,1,1,2,2,3,3,4,4,5,5,6,6],"right_children":[2,4,6,8,10,12,14,-1,-1,-1,-1,-1,-1,-1,-1],"split_conditions":[-1.115418E0,1.6238009E0,1.2279367E0,-1.2195884E0,1.6779027E0,1.0000008E0,-1.6508332E0,-1.6846212E-2,3.476455E-2,3.4300804E-1,4.3748408E-3,9.945436E-3,-1.858367E-2,-1.08830504E-1,-2.8290918E-2],"split_indices":[7,0,19,10,0,20,0,0,0,0,0,0,0,0,0],"split_type":[0,0,0,0,0,0,0,0,0,0,0,0,0,0,0],"sum_hessian":[5.61025E5,1.16736E5,4.44289E5,1.13088E5,3.648E3,3.70241E5,7.4048E4,4.464E4,6.8448E4,1.824E3,1.824E3,2.40657E5,1.29584E5,1.888E3,7.216E4],"tree_param":{"num_deleted":"0","num_feature":"22","num_nodes":"15","size_leaf_vector":"1"}},{"base_weights":[-3.833907E-6,1.457879E-1,-6.0035788E-2,6.2657297E-1,5.6677498E-2,1.0540601E-1,-1.2896976E-1,-3.894643E-2,8.057871E-2,-5.621811E-3,3.3891078E-2,2.4152266E-2,-2.988697E-2,-3.0970076E-2,-5.1082927E-3],"categories":[],"categories_nodes":[],"categories_segments":[],"categories_sizes":[],"default_left":[0,0,0,0,0,0,0,0,0,0,0,0,0,0,0],"id":60,"left_children":[1,3,5,7,9,11,13,-1,-1,-1,-1,-1,-1,-1,-1],"loss_changes":[4.910199E3,7.0104844E3,4.532116E3,4.6592236E3,4.398629E3,6.431877E3,3.9486577E3,0E0,0E0,0E0,0E0,0E0,0E0,0E0,0E0],"parents":[2147483647,0,0,1,1,2,2,3,3,4,4,5,5,6,6],"right_children":[2,4,6,8,10,12,14,-1,-1,-1,-1,-1,-1,-1,-1],"split_conditions":[-7.071087E-1,-1.1904185E0,-1.0000008E0,-1.6508332E0,3.6115995E-1,1.2253159E0,-6.84051E-1,-3.894643E-2,8.057871E-2,-5.621811E-3,3.3891078E-2,2.4152266E-2,-2.988697E-2,-3.0970076E-2,-5.1082927E-3],"split_indices":[21,0,20,0,19,10,5,0,0,0,0,0,0,0,0],"split_type":[0,0,0,0,0,0,0,0,0,0,0,0,0,0,0],"sum_hessian":[5.61025E5,1.63632E5,3.97393E5,2.5585E4,1.38047E5,1.1688E5,2.80513E5,3.836E3,2.1749E4,9.8605E4,3.9442E4,8.744E4,2.944E4,8.448E4,1.96033E5],"tree_param":{"num_deleted":"0","num_feature":"22","num_nodes":"15","size_leaf_vector":"1"}},{"base_weights":[-3.5516773E-6,-5.814322E-1,1.3956093E-2,2.3747432E0,-7.288407E-1,2.3990065E-1,-3.168533E-2,2.7173454E-2,3.6850038E-1,-5.1556297E-2,-2.3381102E-1,6.118662E-2,-7.685236E-3,-5.5486854E-2,1.4921562E-3],"categories":[],"categories_nodes":[],"categories_segments":[],"categories_sizes":[],"default_left":[0,0,0,0,0,0,0,0,0,0,0,0,0,0,0],"id":61,"left_children":[1,3,5,7,9,11,13,-1,-1,-1,-1,-1,-1,-1,-1],"loss_changes":[4.5535967E3,5.7337876E3,5.64991E3,1.7211797E3,4.299357E3,1.0848199E4,1.1114233E4,0E0,0E0,0E0,0E0,0E0,0E0,0E0,0E0],"parents":[2147483647,0,0,1,1,2,2,3,3,4,4,5,5,6,6],"right_children":[2,4,6,8,10,12,14,-1,-1,-1,-1,-1,-1,-1,-1],"split_conditions":[-1.6508332E0,-1.3766943E0,-1.082326E0,-1.4083662E0,-1.6325016E0,-2.3713244E-1,-8.5212487E-1,2.7173454E-2,3.6850038E-1,-5.1556297E-2,-2.3381102E-1,6.118662E-2,-7.685236E-3,-5.5486854E-2,1.4921562E-3],"split_indices":[0,7,0,7,2,7,0,0,0,0,0,0,0,0,0],"split_type":[0,0,0,0,0,0,0,0,0,0,0,0,0,0,0],"sum_hessian":[5.61025E5,1.3153E4,5.47872E5,6.24E2,1.2529E4,9.2072E4,4.558E5,2.4E2,3.84E2,1.1064E4,1.465E3,4.2345E4,4.9727E4,3.7282E4,4.18518E5],"tree_param":{"num_deleted":"0","num_feature":"22","num_nodes":"15","size_leaf_vector":"1"}},{"base_weights":[-2.9445785E-6,3.861679E-2,-1.931004E-1,1.9316545E-1,-6.441652E-2,4.3690495E-2,-2.7282453E-1,2.8136104E-2,-6.8787336E-3,3.779276E-3,-1.6264677E-2,3.2779016E-2,-2.4041286E-2,-3.276793E-2,8.3317654E-4],"categories":[],"categories_nodes":[],"categories_segments":[],"categories_sizes":[],"default_left":[0,0,0,0,0,0,0,0,0,0,0,0,0,0,0],"id":62,"left_children":[1,3,5,7,9,11,13,-1,-1,-1,-1,-1,-1,-1,-1],"loss_changes":[4.183787E3,7.444674E3,1.7651946E3,4.3205273E3,2.8163687E3,1.9011276E3,1.0788711E3,0E0,0E0,0E0,0E0,0E0,0E0,0E0,0E0],"parents":[2147483647,0,0,1,1,2,2,3,3,4,4,5,5,6,6],"right_children":[2,4,6,8,10,12,14,-1,-1,-1,-1,-1,-1,-1,-1],"split_conditions":[1.2279367E0,1.9934163E-16,-9.854553E-1,1.2253159E0,-3.6539715E-2,1.5168623E0,1.2778038E0,2.8136104E-2,-6.8787336E-3,3.779276E-3,-1.6264677E-2,3.2779016E-2,-2.4041286E-2,-3.276793E-2,8.3317654E-4],"split_indices":[19,20,7,10,6,19,4,0,0,0,0,0,0,0,0],"split_type":[0,0,0,0,0,0,0,0,0,0,0,0,0,0,0],"sum_hessian":[5.61025E5,4.67521E5,9.3504E4,1.87009E5,2.80512E5,2.3552E4,6.9952E4,1.39905E5,4.7104E4,1.37472E5,1.4304E5,1.1776E4,1.1776E4,5.8532E4,1.142E4],"tree_param":{"num_deleted":"0","num_feature":"22","num_nodes":"15","size_leaf_vector":"1"}},{"base_weights":[-2.5514287E-6,-5.172872E-2,1.428873E-1,1.0015363E-1,-1.799501E-1,-6.429665E-2,2.843613E-1,-1.7999504E-3,7.641854E-2,-1.6570823E-1,-1.195726E-2,7.4801496E-3,-9.213338E-2,5.6527443E-2,2.566342E-3],"categories":[],"categories_nodes":[],"categories_segments":[],"categories_sizes":[],"default_left":[0,0,0,0,0,0,0,0,0,0,0,0,0,0,0],"id":63,"left_children":[1,3,5,7,9,11,13,-1,-1,-1,-1,-1,-1,-1,-1],"loss_changes":[4.146632E3,8.0218643E3,4.370691E3,1.4793949E4,1.9919844E4,7.2131265E3,6.4392725E3,0E0,0E0,0E0,0E0,0E0,0E0,0E0,0E0],"parents":[2147483647,0,0,1,1,2,2,3,3,4,4,5,5,6,6],"right_children":[2,4,6,8,10,12,14,-1,-1,-1,-1,-1,-1,-1,-1],"split_conditions":[8.1134784E-1,-5.6777245E-1,6.796302E-1,-7.436372E-1,-5.136213E-1,1.3295969E0,1.2581785E0,-1.7999504E-3,7.641854E-2,-1.6570823E-1,-1.195726E-2,7.4801496E-3,-9.213338E-2,5.6527443E-2,2.566342E-3],"split_indices":[0,0,17,0,0,6,0,0,0,0,0,0,0,0,0],"split_type":[0,0,0,0,0,0,0,0,0,0,0,0,0,0,0],"sum_hessian":[5.61025E5,4.11913E5,1.49112E5,1.88559E5,2.23354E5,6.0505E4,8.8607E4,1.60077E5,2.8482E4,8.77E3,2.14584E5,5.2057E4,8.448E3,4.2479E4,4.6128E4],"tree_param":{"num_deleted":"0","num_feature":"22","num_nodes":"15","size_leaf_vector":"1"}},{"base_weights":[-2.5940667E-6,-1.2972636E-2,5.4029256E-1,-8.1188455E-3,-1.8208404E0,2.0558655E0,-2.1695073E-1,3.5748567E-2,-3.0549013E-3,-2.5299045E-1,5.947551E-1,5.718108E-2,3.3746365E-1,-6.094256E-2,8.68894E-2],"categories":[],"categories_nodes":[],"categories_segments":[],"categories_sizes":[],"default_left":[0,0,0,0,0,0,0,0,0,0,0,0,0,0,0],"id":64,"left_children":[1,3,5,7,9,11,13,-1,-1,-1,-1,-1,-1,-1,-1],"loss_changes":[3.931481E3,4.8075947E3,1.5094436E4,4.4808765E3,8.095705E3,8.574207E3,3.738438E3,0E0,0E0,0E0,0E0,0E0,0E0,0E0,0E0],"parents":[2147483647,0,0,1,1,2,2,3,3,4,4,5,5,6,6],"right_children":[2,4,6,8,10,12,14,-1,-1,-1,-1,-1,-1,-1,-1],"split_conditions":[1.6508518E0,1.6685352E0,1.6779027E0,-1.8341376E0,1.5079749E0,-3.331358E-1,9.5699906E-1,3.5748567E-2,-3.0549013E-3,-2.5299045E-1,5.947551E-1,5.718108E-2,3.3746365E-1,-6.094256E-2,8.68894E-2],"split_indices":[0,2,0,17,18,5,7,0,0,0,0,0,0,0,0],"split_type":[0,0,0,0,0,0,0,0,0,0,0,0,0,0,0],"sum_hessian":[5.61025E5,5.47874E5,1.3151E4,5.46408E5,1.466E3,4.381E3,8.77E3,3.1584E4,5.14824E5,1.344E3,1.22E2,2.062E3,2.319E3,6.442E3,2.328E3],"tree_param":{"num_deleted":"0","num_feature":"22","num_nodes":"15","size_leaf_vector":"1"}},{"base_weights":[-8.281027E-7,-5.247842E-1,1.2598809E-2,2.0418777E0,-6.631305E-1,2.1932893E-1,-2.9161246E-2,2.4454867E-2,3.0375233E-1,-1.6520683E-1,-2.842893E-2,5.4779567E-2,-6.6609173E-3,-1.5523131E-1,-1.4365505E-3],"categories":[],"categories_nodes":[],"categories_segments":[],"categories_sizes":[],"default_left":[0,0,0,0,0,0,0,0,0,0,0,0,0,0,0],"id":65,"left_children":[1,3,5,7,9,11,13,-1,-1,-1,-1,-1,-1,-1,-1],"loss_changes":[3.7095554E3,4.6721846E3,4.7298276E3,1.2035923E3,4.6759165E3,8.647639E3,1.0271983E4,0E0,0E0,0E0,0E0,0E0,0E0,0E0,0E0],"parents":[2147483647,0,0,1,1,2,2,3,3,4,4,5,5,6,6],"right_children":[2,4,6,8,10,12,14,-1,-1,-1,-1,-1,-1,-1,-1],"split_conditions":[-1.6508332E0,-1.370886E0,-1.082326E0,-1.4083662E0,-3.0876848E-1,-2.1310434E-1,-1.0552566E0,2.4454867E-2,3.0375233E-1,-1.6520683E-1,-2.842893E-2,5.4779567E-2,-6.6609173E-3,-1.5523131E-1,-1.4365505E-3],"split_indices":[0,7,0,7,7,7,0,0,0,0,0,0,0,0,0],"split_type":[0,0,0,0,0,0,0,0,0,0,0,0,0,0,0],"sum_hessian":[5.61025E5,1.3153E4,5.47872E5,6.72E2,1.2481E4,9.2072E4,4.558E5,2.4E2,4.32E2,3.456E3,9.025E3,4.2849E4,4.9223E4,4.384E3,4.51416E5],"tree_param":{"num_deleted":"0","num_feature":"22","num_nodes":"15","size_leaf_vector":"1"}},{"base_weights":[-8.2955114E-7,1.266151E-1,-5.213686E-2,5.389148E-1,5.019802E-2,-3.180087E-2,-4.6590966E-1,2.8304145E-2,1.0141665E-1,2.3705105E-3,9.768639E-2,1.0238453E-2,-8.771142E-3,-4.2390522E-1,-2.9270051E-2],"categories":[],"categories_nodes":[],"categories_segments":[],"categories_sizes":[],"default_left":[0,0,0,0,0,0,0,0,0,0,0,0,0,0,0],"id":66,"left_children":[1,3,5,7,9,11,13,-1,-1,-1,-1,-1,-1,-1,-1],"loss_changes":[3.703481E3,5.1555166E3,3.343849E3,3.1110786E3,3.389066E3,2.8417527E3,1.2165112E4,0E0,0E0,0E0,0E0,0E0,0E0,0E0,0E0],"parents":[2147483647,0,0,1,1,2,2,3,3,4,4,5,5,6,6],"right_children":[2,4,6,8,10,12,14,-1,-1,-1,-1,-1,-1,-1,-1],"split_conditions":[-7.071087E-1,-1.1904185E0,1.3708085E0,-1.3799168E0,1.6508518E0,-1.0000008E0,-1.5755652E0,2.8304145E-2,1.0141665E-1,2.3705105E-3,9.768639E-2,1.0238453E-2,-8.771142E-3,-4.2390522E-1,-2.9270051E-2],"split_indices":[21,0,3,0,0,20,5,0,0,0,0,0,0,0,0],"split_type":[0,0,0,0,0,0,0,0,0,0,0,0,0,0,0],"sum_hessian":[5.61025E5,1.63632E5,3.97393E5,2.5585E4,1.38047E5,3.78778E5,1.8615E4,1.6632E4,8.953E3,1.34211E5,3.836E3,1.11405E5,2.67373E5,8.16E2,1.7799E4],"tree_param":{"num_deleted":"0","num_feature":"22","num_nodes":"15","size_leaf_vector":"1"}},{"base_weights":[-1.2449781E-6,9.655756E-2,-6.653232E-2,5.109219E-1,3.23131E-2,-4.78961E0,-6.0367167E-2,2.7591793E-2,1.1605253E-1,-1.7675279E-2,1.34414835E-2,-7.0225346E-1,3.0174538E-1,-1.4567454E-2,8.164736E-3],"categories":[],"categories_nodes":[],"categories_segments":[],"categories_sizes":[],"default_left":[0,0,0,0,0,0,0,0,0,0,0,0,0,0,0],"id":67,"left_children":[1,3,5,7,9,11,13,-1,-1,-1,-1,-1,-1,-1,-1],"loss_changes":[3.604128E3,6.092536E3,9.671734E3,4.6895293E3,4.229646E3,7.569499E3,4.018871E3,0E0,0E0,0E0,0E0,0E0,0E0,0E0,0E0],"parents":[2147483647,0,0,1,1,2,2,3,3,4,4,5,5,6,6],"right_children":[2,4,6,8,10,12,14,-1,-1,-1,-1,-1,-1,-1,-1],"split_conditions":[-3.9645588E-1,3.497262E-1,-1.6866169E0,1.0990716E0,-4.9170402E-1,1.705966E0,7.654259E-1,2.7591793E-2,1.1605253E-1,-1.7675279E-2,1.34414835E-2,-7.0225346E-1,3.0174538E-1,-1.4567454E-2,8.164736E-3],"split_indices":[6,5,2,3,3,5,4,0,0,0,0,0,0,0,0],"split_type":[0,0,0,0,0,0,0,0,0,0,0,0,0,0,0],"sum_hessian":[5.61025E5,2.28865E5,3.3216E5,3.072E4,1.98145E5,4.32E2,3.31728E5,2.256E4,8.16E3,6.5016E4,1.33129E5,3.36E2,9.6E1,2.0724E5,1.24488E5],"tree_param":{"num_deleted":"0","num_feature":"22","num_nodes":"15","size_leaf_vector":"1"}},{"base_weights":[-1.4958867E-6,6.22846E-3,-1.0048139E0,-4.115114E-2,1.3710329E-1,-1.8619977E0,4.2415994E-1,-2.6501168E-3,-1.067326E-1,-5.6728045E-3,2.7083596E-2,-1.5354352E-1,-1.1181552E0,1.9667256E-1,-3.4850486E-2],"categories":[],"categories_nodes":[],"categories_segments":[],"categories_sizes":[],"default_left":[0,0,0,0,0,0,0,0,0,0,0,0,0,0,0],"id":68,"left_children":[1,3,5,7,9,11,13,-1,-1,-1,-1,-1,-1,-1,-1],"loss_changes":[3.5119937E3,3.4573843E3,4.235246E3,6.154208E3,3.8416199E3,6.5596587E3,1.5465616E3,0E0,0E0,0E0,0E0,0E0,0E0,0E0,0E0],"parents":[2147483647,0,0,1,1,2,2,3,3,4,4,5,5,6,6],"right_children":[2,4,6,8,10,12,14,-1,-1,-1,-1,-1,-1,-1,-1],"split_conditions":[1.7154502E0,8.1134784E-1,7.654259E-1,8.0268955E-1,6.796302E-1,1.2716638E0,-5.2024454E-2,-2.6501168E-3,-1.067326E-1,-5.6728045E-3,2.7083596E-2,-1.5354352E-1,-1.1181552E0,1.9667256E-1,-3.4850486E-2],"split_indices":[5,0,4,2,17,0,3,0,0,0,0,0,0,0,0],"split_type":[0,0,0,0,0,0,0,0,0,0,0,0,0,0,0],"sum_hessian":[5.61025E5,5.57569E5,3.456E3,4.09369E5,1.482E5,2.16E3,1.296E3,4.03608E5,5.761E3,6.0505E4,8.7695E4,2.088E3,7.2E1,4.32E2,8.64E2],"tree_param":{"num_deleted":"0","num_feature":"22","num_nodes":"15","size_leaf_vector":"1"}},{"base_weights":[-3.6117387E-6,4.9005944E-2,-1.1902669E-1,1.1570329E-1,-1.6776007E-1,-2.1217996E-1,-1.8194783E-2,1.5135268E-2,-1.4970729E-2,2.6727056E-3,-2.33241E-2,-6.1043527E-2,-1.085876E-2,1.8587482E-1,-3.34613E-3],"categories":[],"categories_nodes":[],"categories_segments":[],"categories_sizes":[],"default_left":[0,0,0,0,0,0,0,0,0,0,0,0,0,0,0],"id":69,"left_children":[1,3,5,7,9,11,13,-1,-1,-1,-1,-1,-1,-1,-1],"loss_changes":[3.2726208E3,5.74543E3,1.5369719E3,2.8753457E3,1.1908108E3,3.5089795E3,2.2516943E3,0E0,0E0,0E0,0E0,0E0,0E0,0E0,0E0],"parents":[2147483647,0,0,1,1,2,2,3,3,4,4,5,5,6,6],"right_children":[2,4,6,8,10,12,14,-1,-1,-1,-1,-1,-1,-1,-1],"split_conditions":[1.0000008E0,1.2279367E0,6.850712E-2,1.3213928E0,-9.854553E-1,-1.0065136E0,8.1943035E-2,1.5135268E-2,-1.4970729E-2,2.6727056E-3,-2.33241E-2,-6.1043527E-2,-1.085876E-2,1.8587482E-1,-3.34613E-3],"split_indices":[20,19,0,7,7,5,0,0,0,0,0,0,0,0,0],"split_type":[0,0,0,0,0,0,0,0,0,0,0,0,0,0,0],"sum_hessian":[5.61025E5,3.97393E5,1.63632E5,3.03889E5,9.3504E4,8.5054E4,7.8578E4,2.67905E5,3.5984E4,2.3552E4,6.9952E4,1.7556E4,6.7498E4,6.33E2,7.7945E4],"tree_param":{"num_deleted":"0","num_feature":"22","num_nodes":"15","size_leaf_vector":"1"}},{"base_weights":[-2.9580517E-6,2.4674468E-1,-2.2084199E-2,-3.1719708E-1,5.221505E-1,-4.8253357E-2,2.9934582E-1,1.8743671E-2,-8.722432E-2,6.403633E-2,-1.0583581E-1,1.0821138E-2,-9.393961E-3,4.1665416E-2,-6.598491E-2],"categories":[],"categories_nodes":[],"categories_segments":[],"categories_sizes":[],"default_left":[0,0,0,0,0,0,0,0,0,0,0,0,0,0,0],"id":70,"left_children":[1,3,5,7,9,11,13,-1,-1,-1,-1,-1,-1,-1,-1],"loss_changes":[3.0567522E3,7.157293E3,4.331502E3,4.2354805E3,5.785503E3,3.4038672E3,4.3625103E3,0E0,0E0,0E0,0E0,0E0,0E0,0E0,0E0],"parents":[2147483647,0,0,1,1,2,2,3,3,4,4,5,5,6,6],"right_children":[2,4,6,8,10,12,14,-1,-1,-1,-1,-1,-1,-1,-1],"split_conditions":[-1.2203019E0,-4.9170402E-1,1.4748944E0,1.7679715E-1,1.5696744E0,-1.115418E0,1.3526607E0,1.8743671E-2,-8.722432E-2,6.403633E-2,-1.0583581E-1,1.0821138E-2,-9.393961E-3,4.1665416E-2,-6.598491E-2],"split_indices":[9,3,0,0,0,7,7,0,0,0,0,0,0,0,0],"split_type":[0,0,0,0,0,0,0,0,0,0,0,0,0,0,0],"sum_hessian":[5.61025E5,4.6081E4,5.14944E5,1.512E4,3.0961E4,4.76177E5,3.8767E4,7.92E3,7.2E3,2.8807E4,2.154E3,1.07616E5,3.68561E5,3.4543E4,4.224E3],"tree_param":{"num_deleted":"0","num_feature":"22","num_nodes":"15","size_leaf_vector":"1"}},{"base_weights":[-2.84428E-6,1.627034E-2,-3.3111733E-1,3.6996695E-1,-4.930906E-3,-3.7071762E0,-1.7619962E-1,2.5124645E-1,2.168478E-2,1.036581E-2,-8.7647205E-3,-1.3948865E-1,-8.316121E-1,-3.7271976E-2,1.8389809E-1],"categories":[],"categories_nodes":[],"categories_segments":[],"categories_sizes":[],"default_left":[0,0,0,0,0,0,0,0,0,0,0,0,0,0,0],"id":71,"left_children":[1,3,5,7,9,11,13,-1,-1,-1,-1,-1,-1,-1,-1],"loss_changes":[3.0229744E3,4.00996E3,1.3744607E4,9.920238E3,4.5315225E3,1.227617E4,9.952363E3,0E0,0E0,0E0,0E0,0E0,0E0,0E0,0E0],"parents":[2147483647,0,0,1,1,2,2,3,3,4,4,5,5,6,6],"right_children":[2,4,6,8,10,12,14,-1,-1,-1,-1,-1,-1,-1,-1],"split_conditions":[1.3708085E0,-1.8341376E0,-1.5755652E0,-1.4050416E0,-3.9645588E-1,-4.0534356E-1,1.588153E0,2.5124645E-1,2.168478E-2,1.036581E-2,-8.7647205E-3,-1.3948865E-1,-8.316121E-1,-3.7271976E-2,1.8389809E-1],"split_indices":[3,17,5,4,6,0,8,0,0,0,0,0,0,0,0],"split_type":[0,0,0,0,0,0,0,0,0,0,0,0,0,0,0],"sum_hessian":[5.61025E5,5.34745E5,2.628E4,3.024E4,5.04505E5,1.152E3,2.5128E4,2.016E3,2.8224E4,2.18137E5,2.86368E5,7.68E2,3.84E2,2.2896E4,2.232E3],"tree_param":{"num_deleted":"0","num_feature":"22","num_nodes":"15","size_leaf_vector":"1"}},{"base_weights":[-3.705949E-6,-4.707165E-1,1.1297738E-2,-2.7046114E-1,-2.067111E0,1.3236822E-1,-4.5718376E-2,-6.858732E-3,-2.2514132E-1,3.815021E-1,-2.8313738E-1,-5.482027E-2,2.524348E-2,-1.4960593E-1,-1.0741495E-3],"categories":[],"categories_nodes":[],"categories_segments":[],"categories_sizes":[],"default_left":[0,0,0,0,0,0,0,0,0,0,0,0,0,0,0],"id":72,"left_children":[1,3,5,7,9,11,13,-1,-1,-1,-1,-1,-1,-1,-1],"loss_changes":[2.9845146E3,4.2045977E3,3.7819558E3,4.6743047E3,6.601197E3,1.4333313E4,1.8894639E4,0E0,0E0,0E0,0E0,0E0,0E0,0E0,0E0],"parents":[2147483647,0,0,1,1,2,2,3,3,4,4,5,5,6,6],"right_children":[2,4,6,8,10,12,14,-1,-1,-1,-1,-1,-1,-1,-1],"split_conditions":[-1.6508332E0,-1.6325016E0,-5.6777245E-1,1.3719084E0,1.8212518E-1,-1.2031205E0,-5.136213E-1,-6.858732E-3,-2.2514132E-1,3.815021E-1,-2.8313738E-1,-5.482027E-2,2.524348E-2,-1.4960593E-1,-1.0741495E-3],"split_indices":[0,2,0,7,6,3,0,0,0,0,0,0,0,0,0],"split_type":[0,0,0,0,0,0,0,0,0,0,0,0,0,0,0],"sum_hessian":[5.61025E5,1.3153E4,5.47872E5,1.1688E4,1.465E3,1.75406E5,3.72466E5,1.0608E4,1.08E3,1.68E2,1.297E3,2.6304E4,1.49102E5,8.77E3,3.63696E5],"tree_param":{"num_deleted":"0","num_feature":"22","num_nodes":"15","size_leaf_vector":"1"}},{"base_weights":[-4.0247946E-6,2.104652E-2,-2.3155595E-1,8.086202E-2,-1.0712964E-1,-2.7596024E-1,-1.1765119E-2,1.35145625E-2,-6.06779E-3,-1.3498256E-2,1.9317584E-2,-2.1124778E-2,-4.638097E-2,1.20917104E-1,-1.726211E-2],"categories":[],"categories_nodes":[],"categories_segments":[],"categories_sizes":[],"default_left":[0,0,0,0,0,0,0,0,0,0,0,0,0,0,0],"id":73,"left_children":[1,3,5,7,9,11,13,-1,-1,-1,-1,-1,-1,-1,-1],"loss_changes":[2.7346106E3,3.9429072E3,4.5629004E2,2.694094E3,1.3687156E3,4.727173E2,1.5436761E3,0E0,0E0,0E0,0E0,0E0,0E0,0E0,0E0],"parents":[2147483647,0,0,1,1,2,2,3,3,4,4,5,5,6,6],"right_children":[2,4,6,8,10,12,14,-1,-1,-1,-1,-1,-1,-1,-1],"split_conditions":[1.5168623E0,1.0000008E0,1.1499379E0,9.206438E-1,1.588153E0,9.807683E-1,1.2176114E0,1.35145625E-2,-6.06779E-3,-1.3498256E-2,1.9317584E-2,-2.1124778E-2,-4.638097E-2,1.20917104E-1,-1.726211E-2],"split_indices":[19,20,0,7,8,6,0,0,0,0,0,0,0,0,0],"split_type":[0,0,0,0,0,0,0,0,0,0,0,0,0,0,0],"sum_hessian":[5.61025E5,5.14273E5,4.6752E4,3.50641E5,1.63632E5,3.8894E4,7.858E3,2.53441E5,9.72E4,1.49744E5,1.3888E4,2.893E4,9.964E3,9.14E2,6.944E3],"tree_param":{"num_deleted":"0","num_feature":"22","num_nodes":"15","size_leaf_vector":"1"}},{"base_weights":[-3.6966796E-6,5.394924E-3,-8.7073237E-1,-4.4984728E-1,1.629156E-2,-1.6601886E0,4.452935E-1,1.9256113E-1,-5.694453E-2,-4.0494273E-3,1.1496155E-2,-1.3663049E-1,-1.0047349E0,2.090795E-1,-1.8914767E-2],"categories":[],"categories_nodes":[],"categories_segments":[],"categories_sizes":[],"default_left":[0,0,0,0,0,0,0,0,0,0,0,0,0,0,0],"id":74,"left_children":[1,3,5,7,9,11,13,-1,-1,-1,-1,-1,-1,-1,-1],"loss_changes":[2.6372388E3,2.7658938E3,3.5923708E3,3.704058E3,3.0510764E3,5.3128096E3,1.3544296E3,0E0,0E0,0E0,0E0,0E0,0E0,0E0,0E0],"parents":[2147483647,0,0,1,1,2,2,3,3,4,4,5,5,6,6],"right_children":[2,4,6,8,10,12,14,-1,-1,-1,-1,-1,-1,-1,-1],"split_conditions":[1.7154502E0,-1.6508332E0,7.654259E-1,-1.3766943E0,7.654259E-1,1.2716638E0,-6.7606246E-1,1.9256113E-1,-5.694453E-2,-4.0494273E-3,1.1496155E-2,-1.3663049E-1,-1.0047349E0,2.090795E-1,-1.8914767E-2],"split_indices":[5,0,4,7,4,0,0,0,0,0,0,0,0,0,0],"split_type":[0,0,0,0,0,0,0,0,0,0,0,0,0,0,0],"sum_hessian":[5.61025E5,5.57569E5,3.456E3,1.3033E4,5.44536E5,2.16E3,1.296E3,6.24E2,1.2409E4,3.45625E5,1.98911E5,2.088E3,7.2E1,3.6E2,9.36E2],"tree_param":{"num_deleted":"0","num_feature":"22","num_nodes":"15","size_leaf_vector":"1"}},{"base_weights":[-4.8039597E-6,1.4768127E-2,-3.005933E-1,3.4487158E-1,-5.018899E-3,-1.6228873E0,2.4400558E-2,6.424035E-2,-6.9643065E-2,9.125969E-3,-7.83579E-3,1.6207275E-1,-1.9180404E-1,-6.582659E-2,5.2530486E-2],"categories":[],"categories_nodes":[],"categories_segments":[],"categories_sizes":[],"default_left":[0,0,0,0,0,0,0,0,0,0,0,0,0,0,0],"id":75,"left_children":[1,3,5,7,9,11,13,-1,-1,-1,-1,-1,-1,-1,-1],"loss_changes":[2.4912812E3,3.4928376E3,1.1293968E4,9.369732E3,3.5623113E3,4.967036E3,7.2144766E3,0E0,0E0,0E0,0E0,0E0,0E0,0E0,0E0],"parents":[2147483647,0,0,1,1,2,2,3,3,4,4,5,5,6,6],"right_children":[2,4,6,8,10,12,14,-1,-1,-1,-1,-1,-1,-1,-1],"split_conditions":[1.3708085E0,-1.8341376E0,-1.0444504E0,1.0990716E0,-3.9645588E-1,-1.4465293E0,-6.772777E-1,6.424035E-2,-6.9643065E-2,9.125969E-3,-7.83579E-3,1.6207275E-1,-1.9180404E-1,-6.582659E-2,5.2530486E-2],"split_indices":[3,17,5,3,6,14,6,0,0,0,0,0,0,0,0],"split_type":[0,0,0,0,0,0,0,0,0,0,0,0,0,0,0],"sum_hessian":[5.61025E5,5.34745E5,2.628E4,3.024E4,5.04505E5,5.184E3,2.1096E4,2.352E4,6.72E3,2.18137E5,2.86368E5,4.32E2,4.752E3,8.928E3,1.2168E4],"tree_param":{"num_deleted":"0","num_feature":"22","num_nodes":"15","size_leaf_vector":"1"}},{"base_weights":[-4.5745937E-6,1.0033178E-1,-4.131959E-2,4.6903986E-1,3.1994216E-2,-2.9802567E-1,-1.2270459E-2,3.4854285E-2,1.3723515E-1,-6.1414805E-3,2.6551241E-2,-1.926974E-2,-2.9114565E-1,1.0309219E-1,-3.073806E-3],"categories":[],"categories_nodes":[],"categories_segments":[],"categories_sizes":[],"default_left":[0,0,0,0,0,0,0,0,0,0,0,0,0,0,0],"id":76,"left_children":[1,3,5,7,9,11,13,-1,-1,-1,-1,-1,-1,-1,-1],"loss_changes":[2.3256804E3,4.1229824E3,2.9633987E3,2.7844644E3,3.0112163E3,1.1119719E4,6.877673E3,0E0,0E0,0E0,0E0,0E0,0E0,0E0,0E0],"parents":[2147483647,0,0,1,1,2,2,3,3,4,4,5,5,6,6],"right_children":[2,4,6,8,10,12,14,-1,-1,-1,-1,-1,-1,-1,-1],"split_conditions":[-7.071087E-1,-1.1904185E0,-1.3799168E0,1.3210821E0,3.6115995E-1,-1.3935503E0,-1.325778E0,3.4854285E-2,1.3723515E-1,-6.1414805E-3,2.6551241E-2,-1.926974E-2,-2.9114565E-1,1.0309219E-1,-3.073806E-3],"split_indices":[21,0,0,6,19,0,0,0,0,0,0,0,0,0,0],"split_type":[0,0,0,0,0,0,0,0,0,0,0,0,0,0,0],"sum_hessian":[5.61025E5,1.63632E5,3.97393E5,2.5585E4,1.38047E5,4.0397E4,3.56996E5,2.2575E4,3.01E3,9.8605E4,3.9442E4,3.8833E4,1.564E3,6.209E3,3.50787E5],"tree_param":{"num_deleted":"0","num_feature":"22","num_nodes":"15","size_leaf_vector":"1"}},{"base_weights":[-4.0445148E-6,-3.841494E-2,1.0610331E-1,8.035195E-2,-1.4306496E-1,2.874948E-1,-3.7146244E-2,-4.8963435E-2,1.7032681E-2,-2.7645993E-1,-8.946936E-3,9.846661E-3,1.2331615E-1,-7.087151E-2,1.4163384E-2],"categories":[],"categories_nodes":[],"categories_segments":[],"categories_sizes":[],"default_left":[0,0,0,0,0,0,0,0,0,0,0,0,0,0,0],"id":77,"left_children":[1,3,5,7,9,11,13,-1,-1,-1,-1,-1,-1,-1,-1],"loss_changes":[2.286566E3,5.1196733E3,3.8746006E3,9.895107E3,3.0765777E4,1.1761596E4,1.0003399E4,0E0,0E0,0E0,0E0,0E0,0E0,0E0,0E0],"parents":[2147483647,0,0,1,1,2,2,3,3,4,4,5,5,6,6],"right_children":[2,4,6,8,10,12,14,-1,-1,-1,-1,-1,-1,-1,-1],"split_conditions":[8.1134784E-1,-5.40703E-1,1.2176114E0,-1.2031205E0,-5.136213E-1,1.1499379E0,1.3257656E0,-4.8963435E-2,1.7032681E-2,-2.7645993E-1,-8.946936E-3,9.846661E-3,1.2331615E-1,-7.087151E-2,1.4163384E-2],"split_indices":[0,0,0,3,0,0,0,0,0,0,0,0,0,0,0],"split_type":[0,0,0,0,0,0,0,0,0,0,0,0,0,0,0],"sum_hessian":[5.61025E5,4.11913E5,1.49112E5,1.92943E5,2.1897E5,6.5796E4,8.3316E4,2.6304E4,1.66639E5,4.386E3,2.14584E5,5.4836E4,1.096E4,1.7516E4,6.58E4],"tree_param":{"num_deleted":"0","num_feature":"22","num_nodes":"15","size_leaf_vector":"1"}},{"base_weights":[-3.950504E-6,-3.504702E-1,1.1305343E-2,-3.8920382E-1,3.632688E0,9.667094E-1,-3.6923046E-4,-2.4235865E-2,-2.2843587E-1,7.062482E-2,7.471482E-1,1.3950776E-1,-8.138136E-2,5.074665E-4,-8.8364236E-2],"categories":[],"categories_nodes":[],"categories_segments":[],"categories_sizes":[],"default_left":[0,0,0,0,0,0,0,0,0,0,0,0,0,0,0],"id":78,"left_children":[1,3,5,7,9,11,13,-1,-1,-1,-1,-1,-1,-1,-1],"loss_changes":[2.223645E3,2.7072148E3,6.0620405E3,4.8334194E3,1.893269E3,5.0053374E3,2.5817988E3,0E0,0E0,0E0,0E0,0E0,0E0,0E0,0E0],"parents":[2147483647,0,0,1,1,2,2,3,3,4,4,5,5,6,6],"right_children":[2,4,6,8,10,12,14,-1,-1,-1,-1,-1,-1,-1,-1],"split_conditions":[-1.6237639E0,1.4125557E0,-1.5832585E0,1.3719084E0,2.4337232E-2,1.2317562E0,1.7154502E0,-2.4235865E-2,-2.2843587E-1,7.062482E-2,7.471482E-1,1.3950776E-1,-8.138136E-2,5.074665E-4,-8.8364236E-2],"split_indices":[0,7,0,7,6,5,5,0,0,0,0,0,0,0,0],"split_type":[0,0,0,0,0,0,0,0,0,0,0,0,0,0,0],"sum_hessian":[5.61025E5,1.7537E4,5.43488E5,1.7369E4,1.68E2,6.56E3,5.36928E5,1.6121E4,1.248E3,9.6E1,7.2E1,5.288E3,1.272E3,5.3364E5,3.288E3],"tree_param":{"num_deleted":"0","num_feature":"22","num_nodes":"15","size_leaf_vector":"1"}},{"base_weights":[-2.5038792E-6,2.7860072E-2,-1.3931449E-1,1.4187485E-1,-4.815042E-2,-1.645267E-2,-2.1050644E-1,1.2268173E-2,9.411954E-2,1.6474111E-3,-1.2319473E-2,1.8859185E-2,-2.2149624E-2,-2.6789917E-2,8.1650615E-3],"categories":[],"categories_nodes":[],"categories_segments":[],"categories_sizes":[],"default_left":[0,0,0,0,0,0,0,0,0,0,0,0,0,0,0],"id":79,"left_children":[1,3,5,7,9,11,13,-1,-1,-1,-1,-1,-1,-1,-1],"loss_changes":[2.177677E3,4.0517017E3,8.1786365E2,2.8688909E3,1.3604067E3,1.442329E3,9.926853E2,0E0,0E0,0E0,0E0,0E0,0E0,0E0,0E0],"parents":[2147483647,0,0,1,1,2,2,3,3,4,4,5,5,6,6],"right_children":[2,4,6,8,10,12,14,-1,-1,-1,-1,-1,-1,-1,-1],"split_conditions":[1.2279367E0,1.9934163E-16,-5.6298506E-1,1.6508518E0,1.7004348E-1,1.5168623E0,1.2778038E0,1.2268173E-2,9.411954E-2,1.6474111E-3,-1.2319473E-2,1.8859185E-2,-2.2149624E-2,-2.6789917E-2,8.1650615E-3],"split_indices":[19,20,7,0,6,19,4,0,0,0,0,0,0,0,0],"split_type":[0,0,0,0,0,0,0,0,0,0,0,0,0,0,0],"sum_hessian":[5.61025E5,4.67521E5,9.3504E4,1.87009E5,2.80512E5,3.4304E4,5.92E4,1.82625E5,4.384E3,1.5072E5,1.29792E5,1.7152E4,1.7152E4,4.948E4,9.72E3],"tree_param":{"num_deleted":"0","num_feature":"22","num_nodes":"15","size_leaf_vector":"1"}},{"base_weights":[-2.0741975E-6,2.5014257E-1,-1.5261859E-2,5.7772374E-1,-6.3177186E-1,4.765179E-2,-9.868633E-2,-6.55548E-3,1.0601516E-1,2.1003306E-1,-1.4515932E-1,-3.0395493E-3,1.9279737E-2,-6.2634036E-2,-6.178212E-3],"categories":[],"categories_nodes":[],"categories_segments":[],"categories_sizes":[],"default_left":[0,0,0,0,0,0,0,0,0,0,0,0,0,0,0],"id":80,"left_children":[1,3,5,7,9,11,13,-1,-1,-1,-1,-1,-1,-1,-1],"loss_changes":[2.1415261E3,9.319365E3,2.7752742E3,7.29947E3,1.9572494E4,3.4148066E3,4.4266606E3,0E0,0E0,0E0,0E0,0E0,0E0,0E0,0E0],"parents":[2147483647,0,0,1,1,2,2,3,3,4,4,5,5,6,6],"right_children":[2,4,6,8,10,12,14,-1,-1,-1,-1,-1,-1,-1,-1],"split_conditions":[-1.8341376E0,1.0990716E0,1.7004348E-1,-6.361889E-2,-1.4342656E0,5.321128E-1,-1.4884044E0,-6.55548E-3,1.0601516E-1,2.1003306E-1,-1.4515932E-1,-3.0395493E-3,1.9279737E-2,-6.2634036E-2,-6.178212E-3],"split_indices":[17,3,6,4,0,2,0,0,0,0,0,0,0,0,0],"split_type":[0,0,0,0,0,